<?xml version="1.0"?>
<opencv_storage>
<cascade>
  <stageType>BOOST</stageType>
  <featureType>HAAR</featureType>
  <height>40</height>
  <width>80</width>
  <stageParams>
    <boostType>GAB</boostType>
    <minHitRate>9.9900001287460327e-01</minHitRate>
    <maxFalseAlarm>5.0000000000000000e-01</maxFalseAlarm>
    <weightTrimRate>9.4999999999999996e-01</weightTrimRate>
    <maxDepth>1</maxDepth>
    <maxWeakCount>100</maxWeakCount></stageParams>
  <featureParams>
    <maxCatCount>0</maxCatCount>
    <featSize>1</featSize>
    <mode>ALL</mode></featureParams>
  <stageNum>20</stageNum>
  <stages>
    <!-- stage 0 -->
    <_>
      <maxWeakCount>25</maxWeakCount>
      <stageThreshold>-7.9841023683547974e-01</stageThreshold>
      <weakClassifiers>
        <_>
          <internalNodes>
            0 -1 12 8.9562490582466125e-02</internalNodes>
          <leafValues>
            -1.7082786187529564e-02 7.6413571834564209e-01</leafValues></_>
        <_>
          <internalNodes>
            0 -1 202 5.5396854877471924e-03</internalNodes>
          <leafValues>
            -1.0164885967969894e-01 5.5574727058410645e-01</leafValues></_>
        <_>
          <internalNodes>
            0 -1 154 6.6643461585044861e-02</internalNodes>
          <leafValues>
            -1.8016581237316132e-01 4.5818847417831421e-01</leafValues></_>
        <_>
          <internalNodes>
            0 -1 113 5.0288108177483082e-03</internalNodes>
          <leafValues>
            -1.8359240889549255e-01 4.8640874028205872e-01</leafValues></_>
        <_>
          <internalNodes>
            0 -1 142 8.8475868105888367e-03</internalNodes>
          <leafValues>
            -1.2538692355155945e-01 7.6752895116806030e-01</leafValues></_>
        <_>
          <internalNodes>
            0 -1 132 7.5597852468490601e-02</internalNodes>
          <leafValues>
            1.5673819184303284e-01 -5.7562756538391113e-01</leafValues></_>
        <_>
          <internalNodes>
            0 -1 284 -6.0883595142513514e-04</internalNodes>
          <leafValues>
            5.9480273723602295e-01 -1.5446195006370544e-01</leafValues></_>
        <_>
          <internalNodes>
            0 -1 266 -3.6212289705872536e-03</internalNodes>
          <leafValues>
            6.4383828639984131e-01 -1.2705250084400177e-01</leafValues></_>
        <_>
          <internalNodes>
            0 -1 192 3.5077291540801525e-03</internalNodes>
          <leafValues>
            -1.9552910327911377e-01 4.6702691912651062e-01</leafValues></_>
        <_>
          <internalNodes>
            0 -1 369 7.5305283069610596e-02</internalNodes>
          <leafValues>
            1.3312980532646179e-01 -6.7552465200424194e-01</leafValues></_>
        <_>
          <internalNodes>
            0 -1 403 1.5817495295777917e-04</internalNodes>
          <leafValues>
            -1.3413962721824646e-01 6.4101117849349976e-01</leafValues></_>
        <_>
          <internalNodes>
            0 -1 187 1.4210646972060204e-02</internalNodes>
          <leafValues>
            -1.2365574389696121e-01 5.9669387340545654e-01</leafValues></_>
        <_>
          <internalNodes>
            0 -1 223 -4.8318672925233841e-03</internalNodes>
          <leafValues>
            5.0817710161209106e-01 -1.3092608749866486e-01</leafValues></_>
        <_>
          <internalNodes>
            0 -1 367 -1.4376197010278702e-02</internalNodes>
          <leafValues>
            -6.9399255514144897e-01 1.2263903021812439e-01</leafValues></_>
        <_>
          <internalNodes>
            0 -1 118 5.1081844139844179e-04</internalNodes>
          <leafValues>
            -1.1479196697473526e-01 7.9324144124984741e-01</leafValues></_>
        <_>
          <internalNodes>
            0 -1 177 -2.2796466946601868e-03</internalNodes>
          <leafValues>
            3.5977077484130859e-01 -2.1297916769981384e-01</leafValues></_>
        <_>
          <internalNodes>
            0 -1 453 -2.0308335660956800e-04</internalNodes>
          <leafValues>
            6.7104905843734741e-01 -1.0573101043701172e-01</leafValues></_>
        <_>
          <internalNodes>
            0 -1 611 9.6909550484269857e-04</internalNodes>
          <leafValues>
            1.6392831504344940e-01 -4.7792494297027588e-01</leafValues></_>
        <_>
          <internalNodes>
            0 -1 183 -9.4378588255494833e-04</internalNodes>
          <leafValues>
            6.4324635267257690e-01 -1.2622690200805664e-01</leafValues></_>
        <_>
          <internalNodes>
            0 -1 480 -3.9899456314742565e-03</internalNodes>
          <leafValues>
            -6.6334152221679688e-01 1.2513524293899536e-01</leafValues></_>
        <_>
          <internalNodes>
            0 -1 288 5.1164170727133751e-03</internalNodes>
          <leafValues>
            -1.4098763465881348e-01 6.4228564500808716e-01</leafValues></_>
        <_>
          <internalNodes>
            0 -1 195 6.3768047839403152e-03</internalNodes>
          <leafValues>
            -1.4998419582843781e-01 5.0586324930191040e-01</leafValues></_>
        <_>
          <internalNodes>
            0 -1 433 -1.4513009786605835e-01</internalNodes>
          <leafValues>
            7.0088827610015869e-01 -1.1160628497600555e-01</leafValues></_>
        <_>
          <internalNodes>
            0 -1 397 5.0487533211708069e-02</internalNodes>
          <leafValues>
            -1.3542100787162781e-01 5.4678124189376831e-01</leafValues></_>
        <_>
          <internalNodes>
            0 -1 422 -6.2242010608315468e-03</internalNodes>
          <leafValues>
            8.8352537155151367e-01 -7.3439009487628937e-02</leafValues></_></weakClassifiers></_>
    <!-- stage 1 -->
    <_>
      <maxWeakCount>26</maxWeakCount>
      <stageThreshold>-8.6341208219528198e-01</stageThreshold>
      <weakClassifiers>
        <_>
          <internalNodes>
            0 -1 1 1.9027882814407349e-01</internalNodes>
          <leafValues>
            5.1620647311210632e-02 7.6234000921249390e-01</leafValues></_>
        <_>
          <internalNodes>
            0 -1 541 3.4251692704856396e-03</internalNodes>
          <leafValues>
            -4.8171050846576691e-02 7.8030437231063843e-01</leafValues></_>
        <_>
          <internalNodes>
            0 -1 362 6.8544503301382065e-03</internalNodes>
          <leafValues>
            -1.2926584482192993e-01 5.5554801225662231e-01</leafValues></_>
        <_>
          <internalNodes>
            0 -1 360 2.5823101168498397e-04</internalNodes>
          <leafValues>
            -1.1050662398338318e-01 6.2610000371932983e-01</leafValues></_>
        <_>
          <internalNodes>
            0 -1 151 -1.7498960951343179e-03</internalNodes>
          <leafValues>
            5.3156089782714844e-01 -1.2306933104991913e-01</leafValues></_>
        <_>
          <internalNodes>
            0 -1 252 -1.8546704202890396e-02</internalNodes>
          <leafValues>
            7.9608923196792603e-01 -7.0363432168960571e-02</leafValues></_>
        <_>
          <internalNodes>
            0 -1 249 5.8960739523172379e-02</internalNodes>
          <leafValues>
            9.0761892497539520e-02 -8.9695584774017334e-01</leafValues></_>
        <_>
          <internalNodes>
            0 -1 197 -2.7911290526390076e-02</internalNodes>
          <leafValues>
            -5.6168007850646973e-01 1.3178159296512604e-01</leafValues></_>
        <_>
          <internalNodes>
            0 -1 552 1.5319650992751122e-04</internalNodes>
          <leafValues>
            -1.1997278779745102e-01 6.8086951971054077e-01</leafValues></_>
        <_>
          <internalNodes>
            0 -1 13 6.3834980130195618e-02</internalNodes>
          <leafValues>
            -1.1262568086385727e-01 5.4477173089981079e-01</leafValues></_>
        <_>
          <internalNodes>
            0 -1 8 -2.5951920077204704e-02</internalNodes>
          <leafValues>
            4.8740988969802856e-01 -1.6547086834907532e-01</leafValues></_>
        <_>
          <internalNodes>
            0 -1 498 7.4827061325777322e-05</internalNodes>
          <leafValues>
            -1.5130861103534698e-01 4.1881418228149414e-01</leafValues></_>
        <_>
          <internalNodes>
            0 -1 161 6.0411030426621437e-04</internalNodes>
          <leafValues>
            -1.2316884100437164e-01 4.9885037541389465e-01</leafValues></_>
        <_>
          <internalNodes>
            0 -1 191 6.4299197401851416e-04</internalNodes>
          <leafValues>
            -1.4527219533920288e-01 4.3756562471389771e-01</leafValues></_>
        <_>
          <internalNodes>
            0 -1 277 -9.4621768221259117e-04</internalNodes>
          <leafValues>
            4.1076859831809998e-01 -1.5872006118297577e-01</leafValues></_>
        <_>
          <internalNodes>
            0 -1 128 -1.4332989230751991e-02</internalNodes>
          <leafValues>
            5.2957594394683838e-01 -1.2235601246356964e-01</leafValues></_>
        <_>
          <internalNodes>
            0 -1 564 1.7985620070248842e-03</internalNodes>
          <leafValues>
            -7.7069282531738281e-02 8.1522762775421143e-01</leafValues></_>
        <_>
          <internalNodes>
            0 -1 40 -2.4295272305607796e-03</internalNodes>
          <leafValues>
            -3.2744145393371582e-01 2.0322577655315399e-01</leafValues></_>
        <_>
          <internalNodes>
            0 -1 206 6.0129835037514567e-04</internalNodes>
          <leafValues>
            -1.3254500925540924e-01 4.8439842462539673e-01</leafValues></_>
        <_>
          <internalNodes>
            0 -1 311 -2.6181992143392563e-04</internalNodes>
          <leafValues>
            5.5155193805694580e-01 -1.2225834280252457e-01</leafValues></_>
        <_>
          <internalNodes>
            0 -1 47 2.2567608393728733e-03</internalNodes>
          <leafValues>
            -2.3672252893447876e-01 2.9621550440788269e-01</leafValues></_>
        <_>
          <internalNodes>
            0 -1 459 -2.5516434106975794e-04</internalNodes>
          <leafValues>
            6.7699849605560303e-01 -1.0810344666242599e-01</leafValues></_>
        <_>
          <internalNodes>
            0 -1 281 -2.3395236348733306e-04</internalNodes>
          <leafValues>
            -3.5335043072700500e-01 2.0493628084659576e-01</leafValues></_>
        <_>
          <internalNodes>
            0 -1 164 1.2361623521428555e-04</internalNodes>
          <leafValues>
            1.8639415502548218e-01 -4.1373705863952637e-01</leafValues></_>
        <_>
          <internalNodes>
            0 -1 357 1.2317806249484420e-04</internalNodes>
          <leafValues>
            -2.2989279031753540e-01 3.0360758304595947e-01</leafValues></_>
        <_>
          <internalNodes>
            0 -1 456 -4.7270725190173835e-05</internalNodes>
          <leafValues>
            -3.0270370841026306e-01 2.5123837590217590e-01</leafValues></_></weakClassifiers></_>
    <!-- stage 2 -->
    <_>
      <maxWeakCount>30</maxWeakCount>
      <stageThreshold>-7.9558932781219482e-01</stageThreshold>
      <weakClassifiers>
        <_>
          <internalNodes>
            0 -1 9 2.4520656466484070e-01</internalNodes>
          <leafValues>
            7.1090050041675568e-02 7.4626863002777100e-01</leafValues></_>
        <_>
          <internalNodes>
            0 -1 94 7.2787050157785416e-03</internalNodes>
          <leafValues>
            -7.4906773865222931e-02 5.6830161809921265e-01</leafValues></_>
        <_>
          <internalNodes>
            0 -1 339 -6.3244666671380401e-04</internalNodes>
          <leafValues>
            8.1978994607925415e-01 -1.0477127879858017e-01</leafValues></_>
        <_>
          <internalNodes>
            0 -1 327 2.0641046576201916e-03</internalNodes>
          <leafValues>
            -1.2874348461627960e-01 3.8198453187942505e-01</leafValues></_>
        <_>
          <internalNodes>
            0 -1 384 5.6122057139873505e-03</internalNodes>
          <leafValues>
            -1.2331815063953400e-01 5.5226200819015503e-01</leafValues></_>
        <_>
          <internalNodes>
            0 -1 477 -8.2962214946746826e-03</internalNodes>
          <leafValues>
            6.0458630323410034e-01 -1.0343928635120392e-01</leafValues></_>
        <_>
          <internalNodes>
            0 -1 253 2.8442961629480124e-03</internalNodes>
          <leafValues>
            1.1190725862979889e-01 -5.4653280973434448e-01</leafValues></_>
        <_>
          <internalNodes>
            0 -1 534 -1.1583191808313131e-03</internalNodes>
          <leafValues>
            3.6561280488967896e-01 -1.4741502702236176e-01</leafValues></_>
        <_>
          <internalNodes>
            0 -1 11 4.0881478786468506e-01</internalNodes>
          <leafValues>
            -5.8650027960538864e-02 8.4793949127197266e-01</leafValues></_>
        <_>
          <internalNodes>
            0 -1 71 -2.5088265538215637e-03</internalNodes>
          <leafValues>
            3.8157129287719727e-01 -1.6053470969200134e-01</leafValues></_>
        <_>
          <internalNodes>
            0 -1 300 3.6001263651996851e-04</internalNodes>
          <leafValues>
            -1.2982702255249023e-01 3.8461291790008545e-01</leafValues></_>
        <_>
          <internalNodes>
            0 -1 371 4.5629814267158508e-03</internalNodes>
          <leafValues>
            -1.1712484806776047e-01 4.7344729304313660e-01</leafValues></_>
        <_>
          <internalNodes>
            0 -1 50 -9.5472503453493118e-03</internalNodes>
          <leafValues>
            4.2663782835006714e-01 -1.2914374470710754e-01</leafValues></_>
        <_>
          <internalNodes>
            0 -1 573 2.3847630654927343e-04</internalNodes>
          <leafValues>
            -9.0271063148975372e-02 6.0697269439697266e-01</leafValues></_>
        <_>
          <internalNodes>
            0 -1 294 -1.3372836110647768e-04</internalNodes>
          <leafValues>
            2.8182962536811829e-01 -1.8631082773208618e-01</leafValues></_>
        <_>
          <internalNodes>
            0 -1 264 -2.0295746624469757e-02</internalNodes>
          <leafValues>
            5.1284587383270264e-01 -1.0970055311918259e-01</leafValues></_>
        <_>
          <internalNodes>
            0 -1 180 1.8539004959166050e-03</internalNodes>
          <leafValues>
            7.8635573387145996e-02 -8.8908624649047852e-01</leafValues></_>
        <_>
          <internalNodes>
            0 -1 221 -1.1130247730761766e-03</internalNodes>
          <leafValues>
            -6.1103051900863647e-01 6.8609982728958130e-02</leafValues></_>
        <_>
          <internalNodes>
            0 -1 446 9.6510758157819510e-04</internalNodes>
          <leafValues>
            -8.8571839034557343e-02 6.3702011108398438e-01</leafValues></_>
        <_>
          <internalNodes>
            0 -1 428 -4.6829637140035629e-03</internalNodes>
          <leafValues>
            -6.3843488693237305e-01 9.8682940006256104e-02</leafValues></_>
        <_>
          <internalNodes>
            0 -1 67 6.9486692547798157e-02</internalNodes>
          <leafValues>
            1.2253098934888840e-01 -4.4060000777244568e-01</leafValues></_>
        <_>
          <internalNodes>
            0 -1 45 -8.6596161127090454e-03</internalNodes>
          <leafValues>
            3.9857220649719238e-01 -1.5975964069366455e-01</leafValues></_>
        <_>
          <internalNodes>
            0 -1 107 -7.2422293014824390e-03</internalNodes>
          <leafValues>
            -6.4912825822830200e-01 9.7787804901599884e-02</leafValues></_>
        <_>
          <internalNodes>
            0 -1 218 9.4706099480390549e-04</internalNodes>
          <leafValues>
            -1.2997141480445862e-01 4.5890992879867554e-01</leafValues></_>
        <_>
          <internalNodes>
            0 -1 488 4.9470006488263607e-03</internalNodes>
          <leafValues>
            -1.1904145777225494e-01 4.3862926959991455e-01</leafValues></_>
        <_>
          <internalNodes>
            0 -1 567 -1.3296173885464668e-02</internalNodes>
          <leafValues>
            6.7287355661392212e-01 -8.9411363005638123e-02</leafValues></_>
        <_>
          <internalNodes>
            0 -1 619 8.2559103611856699e-04</internalNodes>
          <leafValues>
            1.4438685774803162e-01 -5.0351148843765259e-01</leafValues></_>
        <_>
          <internalNodes>
            0 -1 344 9.1341382358223200e-05</internalNodes>
          <leafValues>
            2.0098593831062317e-01 -2.8262469172477722e-01</leafValues></_>
        <_>
          <internalNodes>
            0 -1 438 1.0943109169602394e-02</internalNodes>
          <leafValues>
            -9.7339943051338196e-02 5.7766216993331909e-01</leafValues></_>
        <_>
          <internalNodes>
            0 -1 190 -3.2235323451459408e-03</internalNodes>
          <leafValues>
            -6.9972503185272217e-01 8.9905284345149994e-02</leafValues></_></weakClassifiers></_>
    <!-- stage 3 -->
    <_>
      <maxWeakCount>28</maxWeakCount>
      <stageThreshold>-6.7350006103515625e-01</stageThreshold>
      <weakClassifiers>
        <_>
          <internalNodes>
            0 -1 53 4.2960379272699356e-02</internalNodes>
          <leafValues>
            9.1139242053031921e-02 6.5762710571289062e-01</leafValues></_>
        <_>
          <internalNodes>
            0 -1 556 1.4250695705413818e-02</internalNodes>
          <leafValues>
            -5.7160563766956329e-02 6.0926204919815063e-01</leafValues></_>
        <_>
          <internalNodes>
            0 -1 544 -6.6153407096862793e-03</internalNodes>
          <leafValues>
            6.5246617794036865e-01 -1.1462652683258057e-01</leafValues></_>
        <_>
          <internalNodes>
            0 -1 244 2.7110092341899872e-03</internalNodes>
          <leafValues>
            1.3451135158538818e-01 -6.0136407613754272e-01</leafValues></_>
        <_>
          <internalNodes>
            0 -1 359 5.8271898888051510e-04</internalNodes>
          <leafValues>
            -1.1682947725057602e-01 6.9700431823730469e-01</leafValues></_>
        <_>
          <internalNodes>
            0 -1 148 -1.9717390387086198e-05</internalNodes>
          <leafValues>
            -2.9305678606033325e-01 1.9643382728099823e-01</leafValues></_>
        <_>
          <internalNodes>
            0 -1 210 6.8405470810830593e-03</internalNodes>
          <leafValues>
            -1.2174697220325470e-01 4.8727118968963623e-01</leafValues></_>
        <_>
          <internalNodes>
            0 -1 181 2.5831559469224885e-05</internalNodes>
          <leafValues>
            2.2029583156108856e-01 -2.9191106557846069e-01</leafValues></_>
        <_>
          <internalNodes>
            0 -1 293 1.4372330624610186e-03</internalNodes>
          <leafValues>
            -1.9720993936061859e-01 3.4823799133300781e-01</leafValues></_>
        <_>
          <internalNodes>
            0 -1 196 -6.7884721793234348e-03</internalNodes>
          <leafValues>
            3.9300614595413208e-01 -1.5878866612911224e-01</leafValues></_>
        <_>
          <internalNodes>
            0 -1 508 -1.2345244176685810e-03</internalNodes>
          <leafValues>
            -6.0768014192581177e-01 1.1338668316602707e-01</leafValues></_>
        <_>
          <internalNodes>
            0 -1 382 -3.4492061240598559e-04</internalNodes>
          <leafValues>
            8.0971020460128784e-01 -8.9388571679592133e-02</leafValues></_>
        <_>
          <internalNodes>
            0 -1 337 -6.4718842506408691e-02</internalNodes>
          <leafValues>
            -7.3023784160614014e-01 9.5345027744770050e-02</leafValues></_>
        <_>
          <internalNodes>
            0 -1 334 1.5604698564857244e-03</internalNodes>
          <leafValues>
            -9.5236741006374359e-02 6.7164337635040283e-01</leafValues></_>
        <_>
          <internalNodes>
            0 -1 549 -8.4866078395862132e-06</internalNodes>
          <leafValues>
            -2.6607418060302734e-01 2.2361671924591064e-01</leafValues></_>
        <_>
          <internalNodes>
            0 -1 457 -6.2061451375484467e-02</internalNodes>
          <leafValues>
            3.4034276008605957e-01 -1.7204727232456207e-01</leafValues></_>
        <_>
          <internalNodes>
            0 -1 551 7.3348814621567726e-03</internalNodes>
          <leafValues>
            -1.0318158566951752e-01 7.2984445095062256e-01</leafValues></_>
        <_>
          <internalNodes>
            0 -1 23 -4.2025025933980942e-02</internalNodes>
          <leafValues>
            6.3328725099563599e-01 -8.1520557403564453e-02</leafValues></_>
        <_>
          <internalNodes>
            0 -1 295 -3.9253365248441696e-03</internalNodes>
          <leafValues>
            5.0259119272232056e-01 -1.2033541500568390e-01</leafValues></_>
        <_>
          <internalNodes>
            0 -1 325 2.6024397462606430e-02</internalNodes>
          <leafValues>
            -1.1694027483463287e-01 5.1389944553375244e-01</leafValues></_>
        <_>
          <internalNodes>
            0 -1 259 3.3263643272221088e-03</internalNodes>
          <leafValues>
            -1.7009899020195007e-01 4.0895015001296997e-01</leafValues></_>
        <_>
          <internalNodes>
            0 -1 16 -3.5124935675412416e-04</internalNodes>
          <leafValues>
            -4.3259632587432861e-01 1.4219711720943451e-01</leafValues></_>
        <_>
          <internalNodes>
            0 -1 138 -8.6630396544933319e-03</internalNodes>
          <leafValues>
            5.6061756610870361e-01 -1.2135650217533112e-01</leafValues></_>
        <_>
          <internalNodes>
            0 -1 157 -1.8670797348022461e-01</internalNodes>
          <leafValues>
            -9.1384929418563843e-01 7.7255897223949432e-02</leafValues></_>
        <_>
          <internalNodes>
            0 -1 442 5.0015002489089966e-03</internalNodes>
          <leafValues>
            -1.5863348543643951e-01 3.5522925853729248e-01</leafValues></_>
        <_>
          <internalNodes>
            0 -1 513 9.7288384495186619e-06</internalNodes>
          <leafValues>
            1.7309172451496124e-01 -3.1163480877876282e-01</leafValues></_>
        <_>
          <internalNodes>
            0 -1 514 -8.2379674495314248e-06</internalNodes>
          <leafValues>
            -2.7626854181289673e-01 2.0532180368900299e-01</leafValues></_>
        <_>
          <internalNodes>
            0 -1 559 -1.0220720432698727e-03</internalNodes>
          <leafValues>
            3.7361371517181396e-01 -1.4376392960548401e-01</leafValues></_></weakClassifiers></_>
    <!-- stage 4 -->
    <_>
      <maxWeakCount>31</maxWeakCount>
      <stageThreshold>-7.6277458667755127e-01</stageThreshold>
      <weakClassifiers>
        <_>
          <internalNodes>
            0 -1 7 7.9097837209701538e-02</internalNodes>
          <leafValues>
            4.6676095575094223e-02 6.3447248935699463e-01</leafValues></_>
        <_>
          <internalNodes>
            0 -1 589 -3.2029801513999701e-04</internalNodes>
          <leafValues>
            8.0884844064712524e-01 -4.2563498020172119e-02</leafValues></_>
        <_>
          <internalNodes>
            0 -1 174 3.7227101624011993e-02</internalNodes>
          <leafValues>
            -2.1286676824092865e-01 2.9187583923339844e-01</leafValues></_>
        <_>
          <internalNodes>
            0 -1 579 -6.5729785710573196e-03</internalNodes>
          <leafValues>
            6.0979157686233521e-01 -7.9959973692893982e-02</leafValues></_>
        <_>
          <internalNodes>
            0 -1 535 5.4285097867250443e-03</internalNodes>
          <leafValues>
            -1.1023342609405518e-01 5.5535900592803955e-01</leafValues></_>
        <_>
          <internalNodes>
            0 -1 421 -4.6666096895933151e-03</internalNodes>
          <leafValues>
            5.0076204538345337e-01 -1.0379812866449356e-01</leafValues></_>
        <_>
          <internalNodes>
            0 -1 333 2.7898431289941072e-04</internalNodes>
          <leafValues>
            -6.0524299740791321e-02 6.6723704338073730e-01</leafValues></_>
        <_>
          <internalNodes>
            0 -1 306 -9.2063110787421465e-04</internalNodes>
          <leafValues>
            5.6644272804260254e-01 -8.7883003056049347e-02</leafValues></_>
        <_>
          <internalNodes>
            0 -1 609 -4.7538969665765762e-03</internalNodes>
          <leafValues>
            -5.1056438684463501e-01 1.0724209249019623e-01</leafValues></_>
        <_>
          <internalNodes>
            0 -1 222 -2.3208616767078638e-05</internalNodes>
          <leafValues>
            -2.5422504544258118e-01 2.2408615052700043e-01</leafValues></_>
        <_>
          <internalNodes>
            0 -1 108 8.4798721218248829e-06</internalNodes>
          <leafValues>
            2.0883330702781677e-01 -2.6271748542785645e-01</leafValues></_>
        <_>
          <internalNodes>
            0 -1 63 2.0617819973267615e-04</internalNodes>
          <leafValues>
            1.6003710031509399e-01 -3.3006975054740906e-01</leafValues></_>
        <_>
          <internalNodes>
            0 -1 592 -1.5753254992887378e-03</internalNodes>
          <leafValues>
            -5.9320855140686035e-01 9.2300646007061005e-02</leafValues></_>
        <_>
          <internalNodes>
            0 -1 464 -4.8377271741628647e-02</internalNodes>
          <leafValues>
            4.4376340508460999e-01 -1.2505865097045898e-01</leafValues></_>
        <_>
          <internalNodes>
            0 -1 532 1.0526895057410002e-03</internalNodes>
          <leafValues>
            -1.7694433033466339e-01 3.1310698390007019e-01</leafValues></_>
        <_>
          <internalNodes>
            0 -1 512 -2.5999169796705246e-02</internalNodes>
          <leafValues>
            7.0212233066558838e-01 -7.5800664722919464e-02</leafValues></_>
        <_>
          <internalNodes>
            0 -1 475 5.1902257837355137e-04</internalNodes>
          <leafValues>
            -6.4225167036056519e-02 6.8383014202117920e-01</leafValues></_>
        <_>
          <internalNodes>
            0 -1 350 -4.5896135270595551e-03</internalNodes>
          <leafValues>
            5.0025957822799683e-01 -9.6272647380828857e-02</leafValues></_>
        <_>
          <internalNodes>
            0 -1 351 6.7214155569672585e-04</internalNodes>
          <leafValues>
            -1.1116524040699005e-01 5.2043884992599487e-01</leafValues></_>
        <_>
          <internalNodes>
            0 -1 383 -4.0204264223575592e-03</internalNodes>
          <leafValues>
            -7.0088624954223633e-01 9.0478934347629547e-02</leafValues></_>
        <_>
          <internalNodes>
            0 -1 51 1.1811345757450908e-04</internalNodes>
          <leafValues>
            1.6945898532867432e-01 -3.1529518961906433e-01</leafValues></_>
        <_>
          <internalNodes>
            0 -1 432 -8.1272551324218512e-04</internalNodes>
          <leafValues>
            -4.0390986204147339e-01 1.2785656750202179e-01</leafValues></_>
        <_>
          <internalNodes>
            0 -1 227 9.1043468564748764e-03</internalNodes>
          <leafValues>
            -1.2672495841979980e-01 4.5175066590309143e-01</leafValues></_>
        <_>
          <internalNodes>
            0 -1 269 -8.1935599446296692e-03</internalNodes>
          <leafValues>
            7.2301024198532104e-01 -7.4233047664165497e-02</leafValues></_>
        <_>
          <internalNodes>
            0 -1 225 1.3933165464550257e-03</internalNodes>
          <leafValues>
            9.6179790794849396e-02 -6.6792595386505127e-01</leafValues></_>
        <_>
          <internalNodes>
            0 -1 314 7.1049074176698923e-04</internalNodes>
          <leafValues>
            -1.6496352851390839e-01 3.5735037922859192e-01</leafValues></_>
        <_>
          <internalNodes>
            0 -1 410 3.4564934670925140e-02</internalNodes>
          <leafValues>
            7.7012434601783752e-02 -8.1101024150848389e-01</leafValues></_>
        <_>
          <internalNodes>
            0 -1 629 5.8186902606394142e-05</internalNodes>
          <leafValues>
            1.5248455107212067e-01 -3.4608763456344604e-01</leafValues></_>
        <_>
          <internalNodes>
            0 -1 497 -3.5472963005304337e-02</internalNodes>
          <leafValues>
            3.5411468148231506e-01 -1.5540245175361633e-01</leafValues></_>
        <_>
          <internalNodes>
            0 -1 499 3.4782662987709045e-02</internalNodes>
          <leafValues>
            -1.2949509918689728e-01 5.0161492824554443e-01</leafValues></_>
        <_>
          <internalNodes>
            0 -1 440 -7.3162128683179617e-04</internalNodes>
          <leafValues>
            6.3168662786483765e-01 -7.3784567415714264e-02</leafValues></_></weakClassifiers></_>
    <!-- stage 5 -->
    <_>
      <maxWeakCount>37</maxWeakCount>
      <stageThreshold>-9.4697189331054688e-01</stageThreshold>
      <weakClassifiers>
        <_>
          <internalNodes>
            0 -1 575 1.1973283253610134e-02</internalNodes>
          <leafValues>
            1.4688602089881897e-01 6.3327032327651978e-01</leafValues></_>
        <_>
          <internalNodes>
            0 -1 117 2.9192378860898316e-04</internalNodes>
          <leafValues>
            -1.1004947125911713e-01 5.1718223094940186e-01</leafValues></_>
        <_>
          <internalNodes>
            0 -1 86 2.0874044857919216e-03</internalNodes>
          <leafValues>
            6.6539041697978973e-02 -5.8777940273284912e-01</leafValues></_>
        <_>
          <internalNodes>
            0 -1 201 -8.9264055714011192e-03</internalNodes>
          <leafValues>
            4.1456630825996399e-01 -1.3625372946262360e-01</leafValues></_>
        <_>
          <internalNodes>
            0 -1 219 9.0072751045227051e-03</internalNodes>
          <leafValues>
            -9.5343016088008881e-02 5.9370249509811401e-01</leafValues></_>
        <_>
          <internalNodes>
            0 -1 354 2.7601826004683971e-03</internalNodes>
          <leafValues>
            -1.1336721479892731e-01 5.0111132860183716e-01</leafValues></_>
        <_>
          <internalNodes>
            0 -1 245 1.8251710571348667e-03</internalNodes>
          <leafValues>
            -9.8479077219963074e-02 4.9826788902282715e-01</leafValues></_>
        <_>
          <internalNodes>
            0 -1 274 -3.2016687327995896e-04</internalNodes>
          <leafValues>
            5.6444126367568970e-01 -9.3038260936737061e-02</leafValues></_>
        <_>
          <internalNodes>
            0 -1 548 1.4570821804227307e-05</internalNodes>
          <leafValues>
            1.9685181975364685e-01 -2.7127239108085632e-01</leafValues></_>
        <_>
          <internalNodes>
            0 -1 133 5.3916066884994507e-02</internalNodes>
          <leafValues>
            -1.8299926817417145e-01 2.9454186558723450e-01</leafValues></_>
        <_>
          <internalNodes>
            0 -1 299 3.8613968063145876e-03</internalNodes>
          <leafValues>
            9.0961121022701263e-02 -6.7030966281890869e-01</leafValues></_>
        <_>
          <internalNodes>
            0 -1 582 -9.5742219127714634e-04</internalNodes>
          <leafValues>
            6.0975730419158936e-01 -9.2565760016441345e-02</leafValues></_>
        <_>
          <internalNodes>
            0 -1 525 1.2255026958882809e-03</internalNodes>
          <leafValues>
            9.0387858450412750e-02 -6.3295561075210571e-01</leafValues></_>
        <_>
          <internalNodes>
            0 -1 621 9.9748291540890932e-04</internalNodes>
          <leafValues>
            1.8410895764827728e-01 -2.9004684090614319e-01</leafValues></_>
        <_>
          <internalNodes>
            0 -1 278 -3.1985575333237648e-04</internalNodes>
          <leafValues>
            4.1029512882232666e-01 -1.3303451240062714e-01</leafValues></_>
        <_>
          <internalNodes>
            0 -1 506 -6.0316597227938473e-05</internalNodes>
          <leafValues>
            -3.1291744112968445e-01 1.8254320323467255e-01</leafValues></_>
        <_>
          <internalNodes>
            0 -1 109 -9.8659703508019447e-03</internalNodes>
          <leafValues>
            4.9073526263237000e-01 -1.0848273336887360e-01</leafValues></_>
        <_>
          <internalNodes>
            0 -1 376 1.2838462134823203e-04</internalNodes>
          <leafValues>
            -8.9736774563789368e-02 5.5389642715454102e-01</leafValues></_>
        <_>
          <internalNodes>
            0 -1 406 -5.4901378462091088e-05</internalNodes>
          <leafValues>
            -2.3129925131797791e-01 2.1105502545833588e-01</leafValues></_>
        <_>
          <internalNodes>
            0 -1 193 -5.3537636995315552e-04</internalNodes>
          <leafValues>
            5.6260478496551514e-01 -8.6687222123146057e-02</leafValues></_>
        <_>
          <internalNodes>
            0 -1 172 -1.3998080976307392e-03</internalNodes>
          <leafValues>
            -6.8073469400405884e-01 9.2690296471118927e-02</leafValues></_>
        <_>
          <internalNodes>
            0 -1 530 -5.0858543545473367e-05</internalNodes>
          <leafValues>
            -3.4907737374305725e-01 1.5561677515506744e-01</leafValues></_>
        <_>
          <internalNodes>
            0 -1 539 -2.9158636461943388e-03</internalNodes>
          <leafValues>
            5.2198308706283569e-01 -1.0904511809349060e-01</leafValues></_>
        <_>
          <internalNodes>
            0 -1 461 7.5797070167027414e-05</internalNodes>
          <leafValues>
            -1.8798820674419403e-01 2.8099298477172852e-01</leafValues></_>
        <_>
          <internalNodes>
            0 -1 89 -5.7078077225014567e-04</internalNodes>
          <leafValues>
            -7.1651059389114380e-01 7.6094292104244232e-02</leafValues></_>
        <_>
          <internalNodes>
            0 -1 425 -2.2415707644540817e-04</internalNodes>
          <leafValues>
            8.1466293334960938e-01 -7.4228905141353607e-02</leafValues></_>
        <_>
          <internalNodes>
            0 -1 123 -4.4381399638950825e-03</internalNodes>
          <leafValues>
            4.7634205222129822e-01 -9.5198057591915131e-02</leafValues></_>
        <_>
          <internalNodes>
            0 -1 170 -4.8646170645952225e-02</internalNodes>
          <leafValues>
            -4.1640138626098633e-01 1.3355933129787445e-01</leafValues></_>
        <_>
          <internalNodes>
            0 -1 64 4.2408728040754795e-03</internalNodes>
          <leafValues>
            9.3750245869159698e-02 -5.7328021526336670e-01</leafValues></_>
        <_>
          <internalNodes>
            0 -1 140 -1.5920118312351406e-04</internalNodes>
          <leafValues>
            -4.1359296441078186e-01 1.2510271370410919e-01</leafValues></_>
        <_>
          <internalNodes>
            0 -1 310 -7.1817357093095779e-04</internalNodes>
          <leafValues>
            6.4024949073791504e-01 -8.7170995771884918e-02</leafValues></_>
        <_>
          <internalNodes>
            0 -1 115 3.3220402896404266e-02</internalNodes>
          <leafValues>
            -1.3764436542987823e-01 3.7900212407112122e-01</leafValues></_>
        <_>
          <internalNodes>
            0 -1 246 2.2188876755535603e-03</internalNodes>
          <leafValues>
            -1.1398548632860184e-01 4.5873534679412842e-01</leafValues></_>
        <_>
          <internalNodes>
            0 -1 150 1.5335960779339075e-03</internalNodes>
          <leafValues>
            8.0956541001796722e-02 -7.8640598058700562e-01</leafValues></_>
        <_>
          <internalNodes>
            0 -1 399 3.3648073440417647e-04</internalNodes>
          <leafValues>
            -1.1202086508274078e-01 4.8697614669799805e-01</leafValues></_>
        <_>
          <internalNodes>
            0 -1 279 -1.7522172129247338e-05</internalNodes>
          <leafValues>
            -2.4955841898918152e-01 2.0288001000881195e-01</leafValues></_>
        <_>
          <internalNodes>
            0 -1 381 -1.5571409603580832e-03</internalNodes>
          <leafValues>
            4.2787843942642212e-01 -1.2281638383865356e-01</leafValues></_></weakClassifiers></_>
    <!-- stage 6 -->
    <_>
      <maxWeakCount>32</maxWeakCount>
      <stageThreshold>-8.6339384317398071e-01</stageThreshold>
      <weakClassifiers>
        <_>
          <internalNodes>
            0 -1 6 8.2744210958480835e-02</internalNodes>
          <leafValues>
            1.2850467860698700e-01 6.6793894767761230e-01</leafValues></_>
        <_>
          <internalNodes>
            0 -1 117 5.7277979794889688e-04</internalNodes>
          <leafValues>
            -6.1638347804546356e-02 6.4906603097915649e-01</leafValues></_>
        <_>
          <internalNodes>
            0 -1 503 2.6109103113412857e-02</internalNodes>
          <leafValues>
            -1.1426778882741928e-01 5.8986872434616089e-01</leafValues></_>
        <_>
          <internalNodes>
            0 -1 401 2.2533457726240158e-02</internalNodes>
          <leafValues>
            -1.1897148191928864e-01 4.3130242824554443e-01</leafValues></_>
        <_>
          <internalNodes>
            0 -1 486 -9.3818500638008118e-02</internalNodes>
          <leafValues>
            4.6423467993736267e-01 -1.0916869342327118e-01</leafValues></_>
        <_>
          <internalNodes>
            0 -1 24 -7.8758984804153442e-02</internalNodes>
          <leafValues>
            6.4964491128921509e-01 -1.0151858627796173e-01</leafValues></_>
        <_>
          <internalNodes>
            0 -1 365 -1.9258231623098254e-03</internalNodes>
          <leafValues>
            5.7223176956176758e-01 -8.0008856952190399e-02</leafValues></_>
        <_>
          <internalNodes>
            0 -1 389 -1.3073369627818465e-03</internalNodes>
          <leafValues>
            6.8060308694839478e-01 -7.4475407600402832e-02</leafValues></_>
        <_>
          <internalNodes>
            0 -1 289 3.6138528957962990e-03</internalNodes>
          <leafValues>
            -2.0062133669853210e-01 2.8675439953804016e-01</leafValues></_>
        <_>
          <internalNodes>
            0 -1 398 -2.6781231281347573e-04</internalNodes>
          <leafValues>
            5.0527310371398926e-01 -1.1022451519966125e-01</leafValues></_>
        <_>
          <internalNodes>
            0 -1 481 2.6443987735547125e-04</internalNodes>
          <leafValues>
            -6.1726663261651993e-02 7.6387143135070801e-01</leafValues></_>
        <_>
          <internalNodes>
            0 -1 79 2.0127635798417032e-04</internalNodes>
          <leafValues>
            2.1270526945590973e-01 -2.5258213281631470e-01</leafValues></_>
        <_>
          <internalNodes>
            0 -1 240 -1.2822957709431648e-02</internalNodes>
          <leafValues>
            5.4750978946685791e-01 -9.0224497020244598e-02</leafValues></_>
        <_>
          <internalNodes>
            0 -1 27 2.7812045300379395e-04</internalNodes>
          <leafValues>
            1.4277258515357971e-01 -3.7819269299507141e-01</leafValues></_>
        <_>
          <internalNodes>
            0 -1 495 1.7391119617968798e-03</internalNodes>
          <leafValues>
            -1.0079356282949448e-01 5.3103977441787720e-01</leafValues></_>
        <_>
          <internalNodes>
            0 -1 34 -5.7567730545997620e-02</internalNodes>
          <leafValues>
            -3.7660384178161621e-01 1.4669738709926605e-01</leafValues></_>
        <_>
          <internalNodes>
            0 -1 322 -6.9504344537563156e-06</internalNodes>
          <leafValues>
            -2.7527761459350586e-01 2.1390840411186218e-01</leafValues></_>
        <_>
          <internalNodes>
            0 -1 171 5.9858478605747223e-02</internalNodes>
          <leafValues>
            9.3246161937713623e-02 -5.1397061347961426e-01</leafValues></_>
        <_>
          <internalNodes>
            0 -1 358 1.3965261168777943e-03</internalNodes>
          <leafValues>
            -7.9012356698513031e-02 6.8777388334274292e-01</leafValues></_>
        <_>
          <internalNodes>
            0 -1 88 9.2148026451468468e-03</internalNodes>
          <leafValues>
            -1.0798443853855133e-01 4.3477725982666016e-01</leafValues></_>
        <_>
          <internalNodes>
            0 -1 563 -4.8820292577147484e-03</internalNodes>
          <leafValues>
            3.4187906980514526e-01 -1.4718486368656158e-01</leafValues></_>
        <_>
          <internalNodes>
            0 -1 470 1.6544274694751948e-04</internalNodes>
          <leafValues>
            -2.4990607798099518e-01 2.2809894382953644e-01</leafValues></_>
        <_>
          <internalNodes>
            0 -1 212 -1.2357113882899284e-04</internalNodes>
          <leafValues>
            -3.8931661844253540e-01 1.5444113314151764e-01</leafValues></_>
        <_>
          <internalNodes>
            0 -1 558 -3.4339311241637915e-05</internalNodes>
          <leafValues>
            -2.5375589728355408e-01 2.0952582359313965e-01</leafValues></_>
        <_>
          <internalNodes>
            0 -1 607 1.7560872947797179e-05</internalNodes>
          <leafValues>
            1.8043799698352814e-01 -3.1980746984481812e-01</leafValues></_>
        <_>
          <internalNodes>
            0 -1 42 2.0149264018982649e-03</internalNodes>
          <leafValues>
            -1.1221116036176682e-01 4.7475731372833252e-01</leafValues></_>
        <_>
          <internalNodes>
            0 -1 139 -7.6212891144677997e-05</internalNodes>
          <leafValues>
            -4.4938868284225464e-01 1.2292391806840897e-01</leafValues></_>
        <_>
          <internalNodes>
            0 -1 455 -6.0405163094401360e-04</internalNodes>
          <leafValues>
            7.8069061040878296e-01 -7.7609233558177948e-02</leafValues></_>
        <_>
          <internalNodes>
            0 -1 55 -4.0100123733282089e-02</internalNodes>
          <leafValues>
            6.5720593929290771e-01 -7.8908033668994904e-02</leafValues></_>
        <_>
          <internalNodes>
            0 -1 603 5.8086067438125610e-03</internalNodes>
          <leafValues>
            -1.1002846807241440e-01 4.6921008825302124e-01</leafValues></_>
        <_>
          <internalNodes>
            0 -1 241 -1.1444319170550443e-05</internalNodes>
          <leafValues>
            -2.8801280260086060e-01 2.1564264595508575e-01</leafValues></_>
        <_>
          <internalNodes>
            0 -1 68 1.8476465484127402e-03</internalNodes>
          <leafValues>
            -2.3743830621242523e-01 2.5792729854583740e-01</leafValues></_></weakClassifiers></_>
    <!-- stage 7 -->
    <_>
      <maxWeakCount>34</maxWeakCount>
      <stageThreshold>-8.5685390233993530e-01</stageThreshold>
      <weakClassifiers>
        <_>
          <internalNodes>
            0 -1 17 7.3721021413803101e-02</internalNodes>
          <leafValues>
            1.3823163509368896e-01 6.0485267639160156e-01</leafValues></_>
        <_>
          <internalNodes>
            0 -1 105 -6.7567091900855303e-04</internalNodes>
          <leafValues>
            7.3356664180755615e-01 -5.1475316286087036e-02</leafValues></_>
        <_>
          <internalNodes>
            0 -1 364 4.0888683870434761e-03</internalNodes>
          <leafValues>
            -1.4406788349151611e-01 4.8112794756889343e-01</leafValues></_>
        <_>
          <internalNodes>
            0 -1 37 -2.5725970044732094e-03</internalNodes>
          <leafValues>
            -6.5963149070739746e-01 1.0421662777662277e-01</leafValues></_>
        <_>
          <internalNodes>
            0 -1 126 -3.9210006594657898e-02</internalNodes>
          <leafValues>
            -4.6895071864128113e-01 9.5168903470039368e-02</leafValues></_>
        <_>
          <internalNodes>
            0 -1 469 -6.1397617682814598e-03</internalNodes>
          <leafValues>
            4.6480062603950500e-01 -1.2702697515487671e-01</leafValues></_>
        <_>
          <internalNodes>
            0 -1 271 1.3660955242812634e-02</internalNodes>
          <leafValues>
            -1.6648712754249573e-01 3.1862133741378784e-01</leafValues></_>
        <_>
          <internalNodes>
            0 -1 468 -1.4345324598252773e-04</internalNodes>
          <leafValues>
            5.9229338169097900e-01 -9.8488584160804749e-02</leafValues></_>
        <_>
          <internalNodes>
            0 -1 144 1.2489575965446420e-05</internalNodes>
          <leafValues>
            1.8196523189544678e-01 -2.7936714887619019e-01</leafValues></_>
        <_>
          <internalNodes>
            0 -1 449 -3.6654906580224633e-04</internalNodes>
          <leafValues>
            7.6257967948913574e-01 -6.2476627528667450e-02</leafValues></_>
        <_>
          <internalNodes>
            0 -1 143 1.3915369891037699e-05</internalNodes>
          <leafValues>
            2.0383641123771667e-01 -2.5501424074172974e-01</leafValues></_>
        <_>
          <internalNodes>
            0 -1 189 2.3862104862928391e-03</internalNodes>
          <leafValues>
            8.2836858928203583e-02 -6.2022358179092407e-01</leafValues></_>
        <_>
          <internalNodes>
            0 -1 215 7.1083411574363708e-02</internalNodes>
          <leafValues>
            6.4914017915725708e-02 -7.9459387063980103e-01</leafValues></_>
        <_>
          <internalNodes>
            0 -1 153 2.5634191930294037e-02</internalNodes>
          <leafValues>
            -8.2395479083061218e-02 7.2122335433959961e-01</leafValues></_>
        <_>
          <internalNodes>
            0 -1 353 -5.1732277497649193e-03</internalNodes>
          <leafValues>
            -6.2035995721817017e-01 1.0892289131879807e-01</leafValues></_>
        <_>
          <internalNodes>
            0 -1 119 -5.2569893887266517e-04</internalNodes>
          <leafValues>
            7.6553243398666382e-01 -8.0994993448257446e-02</leafValues></_>
        <_>
          <internalNodes>
            0 -1 420 1.2876559048891068e-02</internalNodes>
          <leafValues>
            -1.0716415196657181e-01 4.3049612641334534e-01</leafValues></_>
        <_>
          <internalNodes>
            0 -1 596 1.9435334950685501e-02</internalNodes>
          <leafValues>
            -1.0101637244224548e-01 5.2142101526260376e-01</leafValues></_>
        <_>
          <internalNodes>
            0 -1 628 -9.5264636911451817e-04</internalNodes>
          <leafValues>
            -3.9210331439971924e-01 1.4502951502799988e-01</leafValues></_>
        <_>
          <internalNodes>
            0 -1 435 -6.0546700842678547e-04</internalNodes>
          <leafValues>
            6.3397288322448730e-01 -9.2154487967491150e-02</leafValues></_>
        <_>
          <internalNodes>
            0 -1 296 -1.1522365093696862e-04</internalNodes>
          <leafValues>
            5.6920176744461060e-01 -8.0866083502769470e-02</leafValues></_>
        <_>
          <internalNodes>
            0 -1 137 -1.7808713892009109e-05</internalNodes>
          <leafValues>
            -3.1655082106590271e-01 1.7521582543849945e-01</leafValues></_>
        <_>
          <internalNodes>
            0 -1 492 1.5170341357588768e-03</internalNodes>
          <leafValues>
            -8.7199769914150238e-02 6.6303628683090210e-01</leafValues></_>
        <_>
          <internalNodes>
            0 -1 392 6.5235362853854895e-04</internalNodes>
          <leafValues>
            -7.8306458890438080e-02 5.9115916490554810e-01</leafValues></_>
        <_>
          <internalNodes>
            0 -1 44 -5.1661813631653786e-03</internalNodes>
          <leafValues>
            -6.1398261785507202e-01 9.4970233738422394e-02</leafValues></_>
        <_>
          <internalNodes>
            0 -1 124 -1.6135710757225752e-03</internalNodes>
          <leafValues>
            6.6033208370208740e-01 -9.5851846039295197e-02</leafValues></_>
        <_>
          <internalNodes>
            0 -1 408 7.3537371463316958e-06</internalNodes>
          <leafValues>
            2.1421349048614502e-01 -2.6159077882766724e-01</leafValues></_>
        <_>
          <internalNodes>
            0 -1 516 1.8255728064104915e-03</internalNodes>
          <leafValues>
            -9.5557257533073425e-02 5.8164948225021362e-01</leafValues></_>
        <_>
          <internalNodes>
            0 -1 242 3.1980825588107109e-03</internalNodes>
          <leafValues>
            -1.0907444357872009e-01 4.3898886442184448e-01</leafValues></_>
        <_>
          <internalNodes>
            0 -1 29 2.1700088836951181e-05</internalNodes>
          <leafValues>
            2.0925149321556091e-01 -2.7386265993118286e-01</leafValues></_>
        <_>
          <internalNodes>
            0 -1 335 1.0672842618077993e-03</internalNodes>
          <leafValues>
            -8.5078902542591095e-02 7.0403534173965454e-01</leafValues></_>
        <_>
          <internalNodes>
            0 -1 608 2.6249461807310581e-03</internalNodes>
          <leafValues>
            1.2957763671875000e-01 -5.3177362680435181e-01</leafValues></_>
        <_>
          <internalNodes>
            0 -1 182 5.4789002751931548e-04</internalNodes>
          <leafValues>
            -1.3888777792453766e-01 4.2154815793037415e-01</leafValues></_>
        <_>
          <internalNodes>
            0 -1 96 -1.1122804135084152e-02</internalNodes>
          <leafValues>
            -8.0652314424514771e-01 7.5349301099777222e-02</leafValues></_></weakClassifiers></_>
    <!-- stage 8 -->
    <_>
      <maxWeakCount>36</maxWeakCount>
      <stageThreshold>-9.0456146001815796e-01</stageThreshold>
      <weakClassifiers>
        <_>
          <internalNodes>
            0 -1 14 4.0876928716897964e-02</internalNodes>
          <leafValues>
            9.7493037581443787e-02 5.8912384510040283e-01</leafValues></_>
        <_>
          <internalNodes>
            0 -1 120 3.3179626916535199e-04</internalNodes>
          <leafValues>
            -4.7112904489040375e-02 7.6845669746398926e-01</leafValues></_>
        <_>
          <internalNodes>
            0 -1 505 -8.2877073436975479e-03</internalNodes>
          <leafValues>
            5.7879769802093506e-01 -1.1940680444240570e-01</leafValues></_>
        <_>
          <internalNodes>
            0 -1 542 -3.3587187062948942e-03</internalNodes>
          <leafValues>
            -5.8179312944412231e-01 9.7107514739036560e-02</leafValues></_>
        <_>
          <internalNodes>
            0 -1 265 4.9829827621579170e-03</internalNodes>
          <leafValues>
            -8.2536943256855011e-02 6.6923159360885620e-01</leafValues></_>
        <_>
          <internalNodes>
            0 -1 112 5.9641286497935653e-05</internalNodes>
          <leafValues>
            2.0783965289592743e-01 -2.5524145364761353e-01</leafValues></_>
        <_>
          <internalNodes>
            0 -1 340 7.1303022559732199e-04</internalNodes>
          <leafValues>
            -7.5981974601745605e-02 7.5764256715774536e-01</leafValues></_>
        <_>
          <internalNodes>
            0 -1 578 6.8959556519985199e-03</internalNodes>
          <leafValues>
            -6.9138474762439728e-02 6.2458503246307373e-01</leafValues></_>
        <_>
          <internalNodes>
            0 -1 566 6.4019272103905678e-03</internalNodes>
          <leafValues>
            -1.0818167775869370e-01 4.6255892515182495e-01</leafValues></_>
        <_>
          <internalNodes>
            0 -1 57 2.2365216165781021e-02</internalNodes>
          <leafValues>
            1.0143061727285385e-01 -5.4197680950164795e-01</leafValues></_>
        <_>
          <internalNodes>
            0 -1 194 -1.6133598983287811e-03</internalNodes>
          <leafValues>
            -4.3700188398361206e-01 1.2505158782005310e-01</leafValues></_>
        <_>
          <internalNodes>
            0 -1 93 -1.7036527860909700e-03</internalNodes>
          <leafValues>
            3.6710855364799500e-01 -1.4643333852291107e-01</leafValues></_>
        <_>
          <internalNodes>
            0 -1 615 2.3325155489146709e-03</internalNodes>
          <leafValues>
            1.0989809781312943e-01 -5.0708007812500000e-01</leafValues></_>
        <_>
          <internalNodes>
            0 -1 205 -1.8422769790049642e-04</internalNodes>
          <leafValues>
            -4.9541702866554260e-01 1.0520129650831223e-01</leafValues></_>
        <_>
          <internalNodes>
            0 -1 276 -1.1147806799272075e-04</internalNodes>
          <leafValues>
            5.4886072874069214e-01 -9.4628550112247467e-02</leafValues></_>
        <_>
          <internalNodes>
            0 -1 302 1.9729139748960733e-03</internalNodes>
          <leafValues>
            1.1255215853452682e-01 -4.9508807063102722e-01</leafValues></_>
        <_>
          <internalNodes>
            0 -1 581 -2.2956448447075672e-05</internalNodes>
          <leafValues>
            -3.4210735559463501e-01 1.6165900230407715e-01</leafValues></_>
        <_>
          <internalNodes>
            0 -1 378 1.9741064170375466e-04</internalNodes>
          <leafValues>
            -1.5293599665164948e-01 4.0151199698448181e-01</leafValues></_>
        <_>
          <internalNodes>
            0 -1 305 -1.7959689721465111e-03</internalNodes>
          <leafValues>
            7.2206670045852661e-01 -6.3776887953281403e-02</leafValues></_>
        <_>
          <internalNodes>
            0 -1 28 -5.9422101912787184e-05</internalNodes>
          <leafValues>
            -3.6386242508888245e-01 1.6998529434204102e-01</leafValues></_>
        <_>
          <internalNodes>
            0 -1 285 -1.3983913231641054e-03</internalNodes>
          <leafValues>
            6.0345941781997681e-01 -9.9717184901237488e-02</leafValues></_>
        <_>
          <internalNodes>
            0 -1 565 -1.3744244351983070e-02</internalNodes>
          <leafValues>
            6.1155450344085693e-01 -8.1145897507667542e-02</leafValues></_>
        <_>
          <internalNodes>
            0 -1 557 -7.1029493119567633e-04</internalNodes>
          <leafValues>
            -4.9526590108871460e-01 1.2346965074539185e-01</leafValues></_>
        <_>
          <internalNodes>
            0 -1 234 7.9742092639207840e-03</internalNodes>
          <leafValues>
            -1.4985109865665436e-01 3.5931921005249023e-01</leafValues></_>
        <_>
          <internalNodes>
            0 -1 10 -4.7782909125089645e-02</internalNodes>
          <leafValues>
            6.1814302206039429e-01 -8.9812241494655609e-02</leafValues></_>
        <_>
          <internalNodes>
            0 -1 352 -6.6497310763224959e-04</internalNodes>
          <leafValues>
            7.1161776781082153e-01 -6.9326497614383698e-02</leafValues></_>
        <_>
          <internalNodes>
            0 -1 56 2.5800449773669243e-02</internalNodes>
          <leafValues>
            9.1912984848022461e-02 -7.3724597692489624e-01</leafValues></_>
        <_>
          <internalNodes>
            0 -1 527 -1.9580058506107889e-05</internalNodes>
          <leafValues>
            -2.7112564444541931e-01 2.1633583307266235e-01</leafValues></_>
        <_>
          <internalNodes>
            0 -1 404 1.1846224078908563e-03</internalNodes>
          <leafValues>
            -1.1261930316686630e-01 5.0756460428237915e-01</leafValues></_>
        <_>
          <internalNodes>
            0 -1 452 1.1221040040254593e-02</internalNodes>
          <leafValues>
            -1.2264443933963776e-01 4.5735397934913635e-01</leafValues></_>
        <_>
          <internalNodes>
            0 -1 584 6.5800821175798774e-05</internalNodes>
          <leafValues>
            1.6852745413780212e-01 -3.5332927107810974e-01</leafValues></_>
        <_>
          <internalNodes>
            0 -1 58 1.5493553876876831e-01</internalNodes>
          <leafValues>
            9.0813942253589630e-02 -5.9281516075134277e-01</leafValues></_>
        <_>
          <internalNodes>
            0 -1 307 -3.0020176200196147e-04</internalNodes>
          <leafValues>
            9.6301996707916260e-01 -6.8840503692626953e-02</leafValues></_>
        <_>
          <internalNodes>
            0 -1 445 4.2925041634589434e-04</internalNodes>
          <leafValues>
            -1.4970442652702332e-01 3.2452589273452759e-01</leafValues></_>
        <_>
          <internalNodes>
            0 -1 176 -4.6106608351692557e-05</internalNodes>
          <leafValues>
            -3.1023132801055908e-01 1.8237149715423584e-01</leafValues></_>
        <_>
          <internalNodes>
            0 -1 184 8.3392800297588110e-04</internalNodes>
          <leafValues>
            -2.0380097627639771e-01 2.9862996935844421e-01</leafValues></_></weakClassifiers></_>
    <!-- stage 9 -->
    <_>
      <maxWeakCount>33</maxWeakCount>
      <stageThreshold>-7.5363534688949585e-01</stageThreshold>
      <weakClassifiers>
        <_>
          <internalNodes>
            0 -1 92 1.3004213571548462e-02</internalNodes>
          <leafValues>
            1.6186252236366272e-01 6.5690374374389648e-01</leafValues></_>
        <_>
          <internalNodes>
            0 -1 122 -9.3257967382669449e-03</internalNodes>
          <leafValues>
            5.6513804197311401e-01 -6.9707579910755157e-02</leafValues></_>
        <_>
          <internalNodes>
            0 -1 361 -1.0593057377263904e-03</internalNodes>
          <leafValues>
            6.9522559642791748e-01 -1.1141500622034073e-01</leafValues></_>
        <_>
          <internalNodes>
            0 -1 156 2.1936099074082449e-05</internalNodes>
          <leafValues>
            1.9662022590637207e-01 -2.9372295737266541e-01</leafValues></_>
        <_>
          <internalNodes>
            0 -1 531 -4.0447758510708809e-03</internalNodes>
          <leafValues>
            6.3829237222671509e-01 -1.0690300166606903e-01</leafValues></_>
        <_>
          <internalNodes>
            0 -1 395 4.7543921391479671e-04</internalNodes>
          <leafValues>
            -4.4892922043800354e-02 7.0738065242767334e-01</leafValues></_>
        <_>
          <internalNodes>
            0 -1 375 -4.7685590106993914e-04</internalNodes>
          <leafValues>
            6.6272228956222534e-01 -8.7092079222202301e-02</leafValues></_>
        <_>
          <internalNodes>
            0 -1 111 9.5664903521537781e-02</internalNodes>
          <leafValues>
            -1.7089515924453735e-01 2.9677814245223999e-01</leafValues></_>
        <_>
          <internalNodes>
            0 -1 165 3.0505689792335033e-03</internalNodes>
          <leafValues>
            -1.6547350585460663e-01 3.4978726506233215e-01</leafValues></_>
        <_>
          <internalNodes>
            0 -1 355 8.2990084774792194e-04</internalNodes>
          <leafValues>
            -7.0659697055816650e-02 6.4504295587539673e-01</leafValues></_>
        <_>
          <internalNodes>
            0 -1 494 -2.4819502141326666e-03</internalNodes>
          <leafValues>
            3.8197970390319824e-01 -1.2389783561229706e-01</leafValues></_>
        <_>
          <internalNodes>
            0 -1 316 1.5563517808914185e-04</internalNodes>
          <leafValues>
            -7.6305627822875977e-02 6.2701940536499023e-01</leafValues></_>
        <_>
          <internalNodes>
            0 -1 627 -1.9878833554685116e-03</internalNodes>
          <leafValues>
            -5.1778376102447510e-01 1.0604830086231232e-01</leafValues></_>
        <_>
          <internalNodes>
            0 -1 268 1.0851063998416066e-03</internalNodes>
          <leafValues>
            -1.0517805069684982e-01 5.1677316427230835e-01</leafValues></_>
        <_>
          <internalNodes>
            0 -1 463 6.5327668562531471e-03</internalNodes>
          <leafValues>
            8.6140111088752747e-02 -6.7605465650558472e-01</leafValues></_>
        <_>
          <internalNodes>
            0 -1 427 -3.9080192800611258e-04</internalNodes>
          <leafValues>
            7.4029475450515747e-01 -8.0601930618286133e-02</leafValues></_>
        <_>
          <internalNodes>
            0 -1 273 8.0987595720216632e-04</internalNodes>
          <leafValues>
            -6.9532886147499084e-02 6.3184845447540283e-01</leafValues></_>
        <_>
          <internalNodes>
            0 -1 543 -1.8626684322953224e-04</internalNodes>
          <leafValues>
            -2.3944595456123352e-01 2.1592064201831818e-01</leafValues></_>
        <_>
          <internalNodes>
            0 -1 5 -9.0779319405555725e-02</internalNodes>
          <leafValues>
            8.2546144723892212e-01 -5.8698613196611404e-02</leafValues></_>
        <_>
          <internalNodes>
            0 -1 152 -1.5020806342363358e-02</internalNodes>
          <leafValues>
            6.5345627069473267e-01 -5.9048734605312347e-02</leafValues></_>
        <_>
          <internalNodes>
            0 -1 443 5.0882587675005198e-04</internalNodes>
          <leafValues>
            -8.2691967487335205e-02 5.7348656654357910e-01</leafValues></_>
        <_>
          <internalNodes>
            0 -1 331 2.0625050819944590e-04</internalNodes>
          <leafValues>
            -1.7439982295036316e-01 3.0244034528732300e-01</leafValues></_>
        <_>
          <internalNodes>
            0 -1 341 -2.1897619590163231e-03</internalNodes>
          <leafValues>
            3.6454796791076660e-01 -1.5344716608524323e-01</leafValues></_>
        <_>
          <internalNodes>
            0 -1 393 2.0660799928009510e-03</internalNodes>
          <leafValues>
            1.9309690594673157e-01 -3.0919256806373596e-01</leafValues></_>
        <_>
          <internalNodes>
            0 -1 209 2.5352044758619741e-05</internalNodes>
          <leafValues>
            1.7014993727207184e-01 -3.5505357384681702e-01</leafValues></_>
        <_>
          <internalNodes>
            0 -1 424 -8.8741341605782509e-03</internalNodes>
          <leafValues>
            -4.0858423709869385e-01 1.4678256213665009e-01</leafValues></_>
        <_>
          <internalNodes>
            0 -1 485 -8.7510840967297554e-03</internalNodes>
          <leafValues>
            8.0368643999099731e-01 -7.2946436703205109e-02</leafValues></_>
        <_>
          <internalNodes>
            0 -1 59 9.2349834740161896e-03</internalNodes>
          <leafValues>
            9.6481233835220337e-02 -7.2397124767303467e-01</leafValues></_>
        <_>
          <internalNodes>
            0 -1 263 1.1012769537046552e-03</internalNodes>
          <leafValues>
            -1.5362834930419922e-01 3.9340671896934509e-01</leafValues></_>
        <_>
          <internalNodes>
            0 -1 175 -4.6708661830052733e-04</internalNodes>
          <leafValues>
            6.3205868005752563e-01 -8.5035003721714020e-02</leafValues></_>
        <_>
          <internalNodes>
            0 -1 283 4.4581098482012749e-03</internalNodes>
          <leafValues>
            1.0723625123500824e-01 -5.7149958610534668e-01</leafValues></_>
        <_>
          <internalNodes>
            0 -1 604 -3.5920804366469383e-03</internalNodes>
          <leafValues>
            3.6903831362724304e-01 -1.4895950257778168e-01</leafValues></_>
        <_>
          <internalNodes>
            0 -1 22 -2.3950047325342894e-03</internalNodes>
          <leafValues>
            3.2364690303802490e-01 -1.7546471953392029e-01</leafValues></_></weakClassifiers></_>
    <!-- stage 10 -->
    <_>
      <maxWeakCount>33</maxWeakCount>
      <stageThreshold>-7.9660892486572266e-01</stageThreshold>
      <weakClassifiers>
        <_>
          <internalNodes>
            0 -1 87 2.1390812471508980e-02</internalNodes>
          <leafValues>
            1.8907563388347626e-01 6.5420562028884888e-01</leafValues></_>
        <_>
          <internalNodes>
            0 -1 572 1.4515484217554331e-03</internalNodes>
          <leafValues>
            -3.2727144658565521e-02 9.0442597866058350e-01</leafValues></_>
        <_>
          <internalNodes>
            0 -1 188 1.4972688630223274e-02</internalNodes>
          <leafValues>
            -1.2371961027383804e-01 4.6084719896316528e-01</leafValues></_>
        <_>
          <internalNodes>
            0 -1 434 -2.6720529422163963e-04</internalNodes>
          <leafValues>
            6.0998982191085815e-01 -8.9495293796062469e-02</leafValues></_>
        <_>
          <internalNodes>
            0 -1 308 -2.8845592169091105e-04</internalNodes>
          <leafValues>
            8.3970844745635986e-01 -4.2890418320894241e-02</leafValues></_>
        <_>
          <internalNodes>
            0 -1 43 3.3710271120071411e-01</internalNodes>
          <leafValues>
            -1.2593924999237061e-01 3.9201247692108154e-01</leafValues></_>
        <_>
          <internalNodes>
            0 -1 593 -3.9528735214844346e-05</internalNodes>
          <leafValues>
            -2.5618711113929749e-01 2.0653079450130463e-01</leafValues></_>
        <_>
          <internalNodes>
            0 -1 597 8.0711615737527609e-04</internalNodes>
          <leafValues>
            -7.2315052151679993e-02 7.2405236959457397e-01</leafValues></_>
        <_>
          <internalNodes>
            0 -1 292 -1.6801973106339574e-04</internalNodes>
          <leafValues>
            6.6723293066024780e-01 -6.5633468329906464e-02</leafValues></_>
        <_>
          <internalNodes>
            0 -1 3 -5.6004084646701813e-02</internalNodes>
          <leafValues>
            4.4316095113754272e-01 -1.0355884581804276e-01</leafValues></_>
        <_>
          <internalNodes>
            0 -1 104 -5.9174449415877461e-04</internalNodes>
          <leafValues>
            8.4922480583190918e-01 -5.2423931658267975e-02</leafValues></_>
        <_>
          <internalNodes>
            0 -1 70 1.8220265628769994e-03</internalNodes>
          <leafValues>
            1.4170204102993011e-01 -4.1032597422599792e-01</leafValues></_>
        <_>
          <internalNodes>
            0 -1 386 1.0392965748906136e-02</internalNodes>
          <leafValues>
            -9.8935775458812714e-02 5.1202750205993652e-01</leafValues></_>
        <_>
          <internalNodes>
            0 -1 478 -6.0714012943208218e-04</internalNodes>
          <leafValues>
            -4.5045158267021179e-01 1.4895372092723846e-01</leafValues></_>
        <_>
          <internalNodes>
            0 -1 203 4.7674439847469330e-03</internalNodes>
          <leafValues>
            -1.0330182313919067e-01 4.9085295200347900e-01</leafValues></_>
        <_>
          <internalNodes>
            0 -1 77 -1.6851981636136770e-03</internalNodes>
          <leafValues>
            -6.4557445049285889e-01 8.8555000722408295e-02</leafValues></_>
        <_>
          <internalNodes>
            0 -1 348 1.4176387339830399e-03</internalNodes>
          <leafValues>
            -1.1608907580375671e-01 4.9352952837944031e-01</leafValues></_>
        <_>
          <internalNodes>
            0 -1 321 3.9199646562337875e-03</internalNodes>
          <leafValues>
            8.5132904350757599e-02 -6.5916985273361206e-01</leafValues></_>
        <_>
          <internalNodes>
            0 -1 76 8.4773171693086624e-04</internalNodes>
          <leafValues>
            -1.5554709732532501e-01 3.3622103929519653e-01</leafValues></_>
        <_>
          <internalNodes>
            0 -1 472 -2.4593318812549114e-04</internalNodes>
          <leafValues>
            6.9682759046554565e-01 -6.3281178474426270e-02</leafValues></_>
        <_>
          <internalNodes>
            0 -1 239 1.7881682142615318e-02</internalNodes>
          <leafValues>
            -1.1549395322799683e-01 4.2816799879074097e-01</leafValues></_>
        <_>
          <internalNodes>
            0 -1 504 -4.5185197450337000e-06</internalNodes>
          <leafValues>
            -2.2880238294601440e-01 2.2231531143188477e-01</leafValues></_>
        <_>
          <internalNodes>
            0 -1 431 -2.0570156630128622e-04</internalNodes>
          <leafValues>
            5.9485679864883423e-01 -8.6204923689365387e-02</leafValues></_>
        <_>
          <internalNodes>
            0 -1 598 -2.0593681256286800e-04</internalNodes>
          <leafValues>
            3.3351716399192810e-01 -1.5555520355701447e-01</leafValues></_>
        <_>
          <internalNodes>
            0 -1 80 6.5949192503467202e-05</internalNodes>
          <leafValues>
            1.3655298948287964e-01 -3.7274387478828430e-01</leafValues></_>
        <_>
          <internalNodes>
            0 -1 618 1.0539233335293829e-04</internalNodes>
          <leafValues>
            -1.2734480202198029e-01 4.3052440881729126e-01</leafValues></_>
        <_>
          <internalNodes>
            0 -1 220 -4.2611192911863327e-03</internalNodes>
          <leafValues>
            -6.1467045545578003e-01 9.3599587678909302e-02</leafValues></_>
        <_>
          <internalNodes>
            0 -1 626 2.3540649563074112e-03</internalNodes>
          <leafValues>
            -1.1553708463907242e-01 4.6552798151969910e-01</leafValues></_>
        <_>
          <internalNodes>
            0 -1 178 -1.7091406334657222e-05</internalNodes>
          <leafValues>
            -2.2958393394947052e-01 2.2420205175876617e-01</leafValues></_>
        <_>
          <internalNodes>
            0 -1 366 -1.6004646895453334e-03</internalNodes>
          <leafValues>
            -7.3045915365219116e-01 7.5243405997753143e-02</leafValues></_>
        <_>
          <internalNodes>
            0 -1 379 -4.6225165715441108e-04</internalNodes>
          <leafValues>
            3.5082384943962097e-01 -1.6294164955615997e-01</leafValues></_>
        <_>
          <internalNodes>
            0 -1 423 2.7178917662240565e-04</internalNodes>
          <leafValues>
            -6.3057653605937958e-02 8.1525105237960815e-01</leafValues></_>
        <_>
          <internalNodes>
            0 -1 594 -4.3117613531649113e-03</internalNodes>
          <leafValues>
            -7.6581519842147827e-01 8.4660351276397705e-02</leafValues></_></weakClassifiers></_>
    <!-- stage 11 -->
    <_>
      <maxWeakCount>34</maxWeakCount>
      <stageThreshold>-9.3166750669479370e-01</stageThreshold>
      <weakClassifiers>
        <_>
          <internalNodes>
            0 -1 99 2.9737097211182117e-03</internalNodes>
          <leafValues>
            1.9042871892452240e-01 7.1352785825729370e-01</leafValues></_>
        <_>
          <internalNodes>
            0 -1 577 -3.4915085416287184e-04</internalNodes>
          <leafValues>
            8.5363799333572388e-01 -3.4519534558057785e-02</leafValues></_>
        <_>
          <internalNodes>
            0 -1 49 -7.1689751930534840e-03</internalNodes>
          <leafValues>
            4.3131825327873230e-01 -1.4867128431797028e-01</leafValues></_>
        <_>
          <internalNodes>
            0 -1 418 1.0011956095695496e-02</internalNodes>
          <leafValues>
            -1.0141072422266006e-01 5.2853703498840332e-01</leafValues></_>
        <_>
          <internalNodes>
            0 -1 326 5.7675782591104507e-04</internalNodes>
          <leafValues>
            -7.3263838887214661e-02 6.8238723278045654e-01</leafValues></_>
        <_>
          <internalNodes>
            0 -1 226 -2.3732290137559175e-03</internalNodes>
          <leafValues>
            -5.5149918794631958e-01 1.0344422608613968e-01</leafValues></_>
        <_>
          <internalNodes>
            0 -1 228 8.3426869241520762e-04</internalNodes>
          <leafValues>
            -8.9956484735012054e-02 6.8405747413635254e-01</leafValues></_>
        <_>
          <internalNodes>
            0 -1 199 1.2174861505627632e-02</internalNodes>
          <leafValues>
            -1.0945889353752136e-01 5.0706744194030762e-01</leafValues></_>
        <_>
          <internalNodes>
            0 -1 257 -1.8439551349729300e-03</internalNodes>
          <leafValues>
            7.5709342956542969e-01 -7.2329267859458923e-02</leafValues></_>
        <_>
          <internalNodes>
            0 -1 620 -4.6991775889182463e-05</internalNodes>
          <leafValues>
            -3.0433622002601624e-01 1.9669733941555023e-01</leafValues></_>
        <_>
          <internalNodes>
            0 -1 385 -6.3749460969120264e-04</internalNodes>
          <leafValues>
            5.1522475481033325e-01 -1.1700263619422913e-01</leafValues></_>
        <_>
          <internalNodes>
            0 -1 286 1.0526867117732763e-03</internalNodes>
          <leafValues>
            -9.9140085279941559e-02 5.2298814058303833e-01</leafValues></_>
        <_>
          <internalNodes>
            0 -1 69 4.6477820433210582e-05</internalNodes>
          <leafValues>
            2.1238856017589569e-01 -2.5824081897735596e-01</leafValues></_>
        <_>
          <internalNodes>
            0 -1 454 -2.1490122890099883e-04</internalNodes>
          <leafValues>
            6.4228385686874390e-01 -8.7645970284938812e-02</leafValues></_>
        <_>
          <internalNodes>
            0 -1 267 -4.9204803071916103e-03</internalNodes>
          <leafValues>
            -5.8422625064849854e-01 1.0205829888582230e-01</leafValues></_>
        <_>
          <internalNodes>
            0 -1 436 2.9475806513801217e-04</internalNodes>
          <leafValues>
            -9.4861075282096863e-02 6.6536515951156616e-01</leafValues></_>
        <_>
          <internalNodes>
            0 -1 315 -1.5452250838279724e-02</internalNodes>
          <leafValues>
            -4.3123400211334229e-01 1.4587521553039551e-01</leafValues></_>
        <_>
          <internalNodes>
            0 -1 216 1.0073588928207755e-03</internalNodes>
          <leafValues>
            -1.8891203403472900e-01 2.9580125212669373e-01</leafValues></_>
        <_>
          <internalNodes>
            0 -1 116 4.9916608259081841e-03</internalNodes>
          <leafValues>
            7.1604758501052856e-02 -7.7284604310989380e-01</leafValues></_>
        <_>
          <internalNodes>
            0 -1 633 -3.8152257911860943e-04</internalNodes>
          <leafValues>
            -4.4980999827384949e-01 1.2095493078231812e-01</leafValues></_>
        <_>
          <internalNodes>
            0 -1 237 8.1345898797735572e-04</internalNodes>
          <leafValues>
            -2.6239839196205139e-01 2.2359219193458557e-01</leafValues></_>
        <_>
          <internalNodes>
            0 -1 90 1.1269596219062805e-01</internalNodes>
          <leafValues>
            1.0273837298154831e-01 -5.9803575277328491e-01</leafValues></_>
        <_>
          <internalNodes>
            0 -1 186 -2.6934348046779633e-02</internalNodes>
          <leafValues>
            -4.9897587299346924e-01 1.0432081669569016e-01</leafValues></_>
        <_>
          <internalNodes>
            0 -1 236 -1.3689480721950531e-02</internalNodes>
          <leafValues>
            4.0652829408645630e-01 -1.4505478739738464e-01</leafValues></_>
        <_>
          <internalNodes>
            0 -1 167 -7.9578142613172531e-03</internalNodes>
          <leafValues>
            7.2809839248657227e-01 -6.8445891141891479e-02</leafValues></_>
        <_>
          <internalNodes>
            0 -1 372 3.9003952406346798e-04</internalNodes>
          <leafValues>
            -8.5320949554443359e-02 6.0840862989425659e-01</leafValues></_>
        <_>
          <internalNodes>
            0 -1 526 4.7741942107677460e-03</internalNodes>
          <leafValues>
            9.0958632528781891e-02 -6.9618201255798340e-01</leafValues></_>
        <_>
          <internalNodes>
            0 -1 482 9.5131370471790433e-05</internalNodes>
          <leafValues>
            -1.1356866359710693e-01 5.1000654697418213e-01</leafValues></_>
        <_>
          <internalNodes>
            0 -1 248 6.3987832982093096e-04</internalNodes>
          <leafValues>
            8.3805069327354431e-02 -7.1134525537490845e-01</leafValues></_>
        <_>
          <internalNodes>
            0 -1 502 1.1279699392616749e-03</internalNodes>
          <leafValues>
            -7.8682504594326019e-02 7.3517203330993652e-01</leafValues></_>
        <_>
          <internalNodes>
            0 -1 46 -1.2749303132295609e-03</internalNodes>
          <leafValues>
            4.5117729902267456e-01 -1.1105711013078690e-01</leafValues></_>
        <_>
          <internalNodes>
            0 -1 54 1.4117785729467869e-02</internalNodes>
          <leafValues>
            -9.7778446972370148e-02 5.7059508562088013e-01</leafValues></_>
        <_>
          <internalNodes>
            0 -1 448 -1.4513220230583102e-04</internalNodes>
          <leafValues>
            6.9562971591949463e-01 -7.2670429944992065e-02</leafValues></_>
        <_>
          <internalNodes>
            0 -1 515 3.3511467336211354e-05</internalNodes>
          <leafValues>
            2.1528640389442444e-01 -2.8725317120552063e-01</leafValues></_></weakClassifiers></_>
    <!-- stage 12 -->
    <_>
      <maxWeakCount>32</maxWeakCount>
      <stageThreshold>-8.3734601736068726e-01</stageThreshold>
      <weakClassifiers>
        <_>
          <internalNodes>
            0 -1 41 2.6382878422737122e-02</internalNodes>
          <leafValues>
            6.9503545761108398e-02 6.0888886451721191e-01</leafValues></_>
        <_>
          <internalNodes>
            0 -1 550 -5.3052608855068684e-03</internalNodes>
          <leafValues>
            7.2434437274932861e-01 -4.4153053313493729e-02</leafValues></_>
        <_>
          <internalNodes>
            0 -1 521 1.6315139364451170e-03</internalNodes>
          <leafValues>
            -1.5031357109546661e-01 4.8163682222366333e-01</leafValues></_>
        <_>
          <internalNodes>
            0 -1 538 -1.0484786471351981e-03</internalNodes>
          <leafValues>
            -4.4915869832038879e-01 1.5713702142238617e-01</leafValues></_>
        <_>
          <internalNodes>
            0 -1 507 -1.1068074032664299e-02</internalNodes>
          <leafValues>
            6.5418571233749390e-01 -8.2577042281627655e-02</leafValues></_>
        <_>
          <internalNodes>
            0 -1 298 -3.3329136669635773e-02</internalNodes>
          <leafValues>
            3.9578795433044434e-01 -1.5231381356716156e-01</leafValues></_>
        <_>
          <internalNodes>
            0 -1 568 -9.4909663312137127e-04</internalNodes>
          <leafValues>
            6.1558508872985840e-01 -8.9613445103168488e-02</leafValues></_>
        <_>
          <internalNodes>
            0 -1 31 -5.5469507060479373e-05</internalNodes>
          <leafValues>
            -2.2963921725749969e-01 2.5067991018295288e-01</leafValues></_>
        <_>
          <internalNodes>
            0 -1 560 5.0504272803664207e-03</internalNodes>
          <leafValues>
            8.4235601127147675e-02 -7.1097469329833984e-01</leafValues></_>
        <_>
          <internalNodes>
            0 -1 4 -1.2605805695056915e-01</internalNodes>
          <leafValues>
            7.1225166320800781e-01 -7.9680666327476501e-02</leafValues></_>
        <_>
          <internalNodes>
            0 -1 30 7.8945457935333252e-03</internalNodes>
          <leafValues>
            -8.8653072714805603e-02 6.4465749263763428e-01</leafValues></_>
        <_>
          <internalNodes>
            0 -1 214 -3.1661752611398697e-02</internalNodes>
          <leafValues>
            -3.7078359723091125e-01 1.5350884199142456e-01</leafValues></_>
        <_>
          <internalNodes>
            0 -1 518 -4.5943897566758096e-04</internalNodes>
          <leafValues>
            5.0825476646423340e-01 -1.1852728575468063e-01</leafValues></_>
        <_>
          <internalNodes>
            0 -1 260 5.1464736461639404e-02</internalNodes>
          <leafValues>
            9.0716466307640076e-02 -6.8661433458328247e-01</leafValues></_>
        <_>
          <internalNodes>
            0 -1 631 1.4087816816754639e-04</internalNodes>
          <leafValues>
            -1.1174304783344269e-01 5.0679379701614380e-01</leafValues></_>
        <_>
          <internalNodes>
            0 -1 625 3.0328002758324146e-03</internalNodes>
          <leafValues>
            1.2885308265686035e-01 -5.0207859277725220e-01</leafValues></_>
        <_>
          <internalNodes>
            0 -1 61 -1.7988240870181471e-04</internalNodes>
          <leafValues>
            -3.2868546247482300e-01 1.7048969864845276e-01</leafValues></_>
        <_>
          <internalNodes>
            0 -1 121 -3.2483838731423020e-04</internalNodes>
          <leafValues>
            8.3750885725021362e-01 -7.1018546819686890e-02</leafValues></_>
        <_>
          <internalNodes>
            0 -1 396 1.6505911480635405e-03</internalNodes>
          <leafValues>
            -9.7127854824066162e-02 4.6479386091232300e-01</leafValues></_>
        <_>
          <internalNodes>
            0 -1 319 4.7042405640240759e-05</internalNodes>
          <leafValues>
            2.0291203260421753e-01 -2.8116586804389954e-01</leafValues></_>
        <_>
          <internalNodes>
            0 -1 254 -1.0723338928073645e-03</internalNodes>
          <leafValues>
            -5.7407808303833008e-01 9.0320363640785217e-02</leafValues></_>
        <_>
          <internalNodes>
            0 -1 198 -7.3477602563798428e-04</internalNodes>
          <leafValues>
            5.2686744928359985e-01 -1.0725176334381104e-01</leafValues></_>
        <_>
          <internalNodes>
            0 -1 496 -3.0071234330534935e-02</internalNodes>
          <leafValues>
            7.2246241569519043e-01 -6.8225994706153870e-02</leafValues></_>
        <_>
          <internalNodes>
            0 -1 19 -1.2691592564806342e-03</internalNodes>
          <leafValues>
            -4.4834676384925842e-01 1.3687734305858612e-01</leafValues></_>
        <_>
          <internalNodes>
            0 -1 336 1.7817524494603276e-03</internalNodes>
          <leafValues>
            -6.9996580481529236e-02 8.7554633617401123e-01</leafValues></_>
        <_>
          <internalNodes>
            0 -1 377 6.7256786860525608e-04</internalNodes>
          <leafValues>
            -7.2115808725357056e-02 6.0139596462249756e-01</leafValues></_>
        <_>
          <internalNodes>
            0 -1 500 -9.0183569118380547e-03</internalNodes>
          <leafValues>
            -5.0857025384902954e-01 1.2940178811550140e-01</leafValues></_>
        <_>
          <internalNodes>
            0 -1 553 7.8575555235147476e-03</internalNodes>
          <leafValues>
            8.1262916326522827e-02 -7.1383696794509888e-01</leafValues></_>
        <_>
          <internalNodes>
            0 -1 624 9.7362080123275518e-04</internalNodes>
          <leafValues>
            -1.9192433357238770e-01 3.2243335247039795e-01</leafValues></_>
        <_>
          <internalNodes>
            0 -1 617 -1.3396770227700472e-03</internalNodes>
          <leafValues>
            3.0667355656623840e-01 -2.1856692433357239e-01</leafValues></_>
        <_>
          <internalNodes>
            0 -1 343 3.6263809306547046e-04</internalNodes>
          <leafValues>
            -6.9115072488784790e-02 8.0547022819519043e-01</leafValues></_>
        <_>
          <internalNodes>
            0 -1 614 1.8011571955867112e-04</internalNodes>
          <leafValues>
            -1.4683695137500763e-01 3.5312587022781372e-01</leafValues></_></weakClassifiers></_>
    <!-- stage 13 -->
    <_>
      <maxWeakCount>28</maxWeakCount>
      <stageThreshold>-7.7657133340835571e-01</stageThreshold>
      <weakClassifiers>
        <_>
          <internalNodes>
            0 -1 65 1.7255315184593201e-01</internalNodes>
          <leafValues>
            3.8321995735168457e-01 -8.2456141710281372e-01</leafValues></_>
        <_>
          <internalNodes>
            0 -1 38 3.6042612046003342e-02</internalNodes>
          <leafValues>
            -1.6374522447586060e-01 4.7430971264839172e-01</leafValues></_>
        <_>
          <internalNodes>
            0 -1 104 -3.4589221468195319e-04</internalNodes>
          <leafValues>
            7.0346957445144653e-01 -8.9120402932167053e-02</leafValues></_>
        <_>
          <internalNodes>
            0 -1 238 -6.9376956671476364e-03</internalNodes>
          <leafValues>
            4.9439772963523865e-01 -1.2160258740186691e-01</leafValues></_>
        <_>
          <internalNodes>
            0 -1 356 3.6899089813232422e-02</internalNodes>
          <leafValues>
            -1.7147971689701080e-01 3.6900803446769714e-01</leafValues></_>
        <_>
          <internalNodes>
            0 -1 487 5.8466922491788864e-03</internalNodes>
          <leafValues>
            -2.0014770328998566e-01 4.3059769272804260e-01</leafValues></_>
        <_>
          <internalNodes>
            0 -1 466 3.0832007178105414e-04</internalNodes>
          <leafValues>
            -2.1016667783260345e-01 2.8996944427490234e-01</leafValues></_>
        <_>
          <internalNodes>
            0 -1 25 -7.9630360007286072e-02</internalNodes>
          <leafValues>
            -4.4344750046730042e-01 1.4164161682128906e-01</leafValues></_>
        <_>
          <internalNodes>
            0 -1 569 9.4376207562163472e-04</internalNodes>
          <leafValues>
            -1.1218894273042679e-01 5.4843294620513916e-01</leafValues></_>
        <_>
          <internalNodes>
            0 -1 114 -1.9384643062949181e-02</internalNodes>
          <leafValues>
            -4.8518472909927368e-01 1.2951827049255371e-01</leafValues></_>
        <_>
          <internalNodes>
            0 -1 605 -6.3938845414668322e-05</internalNodes>
          <leafValues>
            -2.3356011509895325e-01 2.7031537890434265e-01</leafValues></_>
        <_>
          <internalNodes>
            0 -1 437 9.2099151515867561e-05</internalNodes>
          <leafValues>
            -1.8966075778007507e-01 3.0066058039665222e-01</leafValues></_>
        <_>
          <internalNodes>
            0 -1 606 -8.3388425409793854e-03</internalNodes>
          <leafValues>
            3.3959236741065979e-01 -1.6792936623096466e-01</leafValues></_>
        <_>
          <internalNodes>
            0 -1 224 -1.3784760609269142e-02</internalNodes>
          <leafValues>
            3.0895707011222839e-01 -1.9356869161128998e-01</leafValues></_>
        <_>
          <internalNodes>
            0 -1 395 4.5948621118441224e-04</internalNodes>
          <leafValues>
            -9.9995046854019165e-02 6.9631904363632202e-01</leafValues></_>
        <_>
          <internalNodes>
            0 -1 574 -9.0001610806211829e-04</internalNodes>
          <leafValues>
            -5.0088858604431152e-01 1.3273674249649048e-01</leafValues></_>
        <_>
          <internalNodes>
            0 -1 387 2.2558400814887136e-04</internalNodes>
          <leafValues>
            -7.9245746135711670e-02 7.6371532678604126e-01</leafValues></_>
        <_>
          <internalNodes>
            0 -1 211 8.0035161226987839e-03</internalNodes>
          <leafValues>
            1.1237987130880356e-01 -6.5966200828552246e-01</leafValues></_>
        <_>
          <internalNodes>
            0 -1 301 -1.3207863084971905e-03</internalNodes>
          <leafValues>
            8.0297988653182983e-01 -8.6092136800289154e-02</leafValues></_>
        <_>
          <internalNodes>
            0 -1 630 -2.7222744392929599e-05</internalNodes>
          <leafValues>
            -2.3801809549331665e-01 2.6659905910491943e-01</leafValues></_>
        <_>
          <internalNodes>
            0 -1 370 -3.2665129401721060e-04</internalNodes>
          <leafValues>
            7.1756452322006226e-01 -9.0968124568462372e-02</leafValues></_>
        <_>
          <internalNodes>
            0 -1 163 1.0097561404109001e-02</internalNodes>
          <leafValues>
            1.0876685380935669e-01 -6.3905501365661621e-01</leafValues></_>
        <_>
          <internalNodes>
            0 -1 134 -1.7558781430125237e-02</internalNodes>
          <leafValues>
            2.6780700683593750e-01 -2.5446027517318726e-01</leafValues></_>
        <_>
          <internalNodes>
            0 -1 102 -6.6471600439399481e-04</internalNodes>
          <leafValues>
            4.4798085093498230e-01 -1.4448100328445435e-01</leafValues></_>
        <_>
          <internalNodes>
            0 -1 623 -1.3925295788794756e-03</internalNodes>
          <leafValues>
            4.2749401926994324e-01 -1.3788431882858276e-01</leafValues></_>
        <_>
          <internalNodes>
            0 -1 141 4.4616861268877983e-03</internalNodes>
          <leafValues>
            1.9264563918113708e-01 -3.1259045004844666e-01</leafValues></_>
        <_>
          <internalNodes>
            0 -1 230 6.0585006140172482e-03</internalNodes>
          <leafValues>
            -7.9129204154014587e-02 6.8928557634353638e-01</leafValues></_>
        <_>
          <internalNodes>
            0 -1 612 -7.2091152105713263e-06</internalNodes>
          <leafValues>
            -2.6579612493515015e-01 2.1467177569866180e-01</leafValues></_></weakClassifiers></_>
    <!-- stage 14 -->
    <_>
      <maxWeakCount>29</maxWeakCount>
      <stageThreshold>-7.7110767364501953e-01</stageThreshold>
      <weakClassifiers>
        <_>
          <internalNodes>
            0 -1 573 2.7934275567531586e-04</internalNodes>
          <leafValues>
            2.2810061275959015e-01 8.6784142255783081e-01</leafValues></_>
        <_>
          <internalNodes>
            0 -1 117 6.0759368352591991e-04</internalNodes>
          <leafValues>
            -6.2101926654577255e-02 6.9200134277343750e-01</leafValues></_>
        <_>
          <internalNodes>
            0 -1 413 -5.2951608086004853e-04</internalNodes>
          <leafValues>
            6.5906244516372681e-01 -9.8707474768161774e-02</leafValues></_>
        <_>
          <internalNodes>
            0 -1 427 -2.4463771842420101e-04</internalNodes>
          <leafValues>
            7.2305506467819214e-01 -8.3978526294231415e-02</leafValues></_>
        <_>
          <internalNodes>
            0 -1 291 -2.4498513084836304e-04</internalNodes>
          <leafValues>
            6.6782492399215698e-01 -9.2741340398788452e-02</leafValues></_>
        <_>
          <internalNodes>
            0 -1 426 1.1252469848841429e-03</internalNodes>
          <leafValues>
            -7.4363045394420624e-02 7.5557035207748413e-01</leafValues></_>
        <_>
          <internalNodes>
            0 -1 555 1.1974169865425210e-05</internalNodes>
          <leafValues>
            2.4617847800254822e-01 -2.5786715745925903e-01</leafValues></_>
        <_>
          <internalNodes>
            0 -1 368 -1.3791807577945292e-04</internalNodes>
          <leafValues>
            6.9975656270980835e-01 -8.7316058576107025e-02</leafValues></_>
        <_>
          <internalNodes>
            0 -1 324 -1.1510027572512627e-02</internalNodes>
          <leafValues>
            -8.3357453346252441e-01 9.3651838600635529e-02</leafValues></_>
        <_>
          <internalNodes>
            0 -1 347 -2.1597257000394166e-04</internalNodes>
          <leafValues>
            8.5999178886413574e-01 -9.5363594591617584e-02</leafValues></_>
        <_>
          <internalNodes>
            0 -1 251 -5.0824659410864115e-04</internalNodes>
          <leafValues>
            -3.0541956424713135e-01 2.0768414437770844e-01</leafValues></_>
        <_>
          <internalNodes>
            0 -1 363 -2.3822602815926075e-04</internalNodes>
          <leafValues>
            7.0206648111343384e-01 -8.4243930876255035e-02</leafValues></_>
        <_>
          <internalNodes>
            0 -1 429 6.2558002537116408e-04</internalNodes>
          <leafValues>
            -8.6868405342102051e-02 5.9334921836853027e-01</leafValues></_>
        <_>
          <internalNodes>
            0 -1 587 2.1808390738442540e-04</internalNodes>
          <leafValues>
            -7.3290817439556122e-02 7.1634894609451294e-01</leafValues></_>
        <_>
          <internalNodes>
            0 -1 304 2.1713173191528767e-04</internalNodes>
          <leafValues>
            -7.5138323009014130e-02 6.8738067150115967e-01</leafValues></_>
        <_>
          <internalNodes>
            0 -1 33 -8.2356366328895092e-04</internalNodes>
          <leafValues>
            -4.7029981017112732e-01 1.4796783030033112e-01</leafValues></_>
        <_>
          <internalNodes>
            0 -1 602 -9.6584029961377382e-04</internalNodes>
          <leafValues>
            9.5539963245391846e-01 -7.5255475938320160e-02</leafValues></_>
        <_>
          <internalNodes>
            0 -1 146 9.5057403086684644e-05</internalNodes>
          <leafValues>
            1.9410786032676697e-01 -3.3815100789070129e-01</leafValues></_>
        <_>
          <internalNodes>
            0 -1 130 -1.2610905287147034e-05</internalNodes>
          <leafValues>
            -3.5275828838348389e-01 1.8854962289333344e-01</leafValues></_>
        <_>
          <internalNodes>
            0 -1 391 -2.0361132919788361e-03</internalNodes>
          <leafValues>
            -6.3665211200714111e-01 1.0419000685214996e-01</leafValues></_>
        <_>
          <internalNodes>
            0 -1 416 3.7213806062936783e-03</internalNodes>
          <leafValues>
            -1.5426903963088989e-01 4.2570769786834717e-01</leafValues></_>
        <_>
          <internalNodes>
            0 -1 519 2.3495955974794924e-04</internalNodes>
          <leafValues>
            1.9536535441875458e-01 -3.2304838299751282e-01</leafValues></_>
        <_>
          <internalNodes>
            0 -1 474 -1.5159635222516954e-04</internalNodes>
          <leafValues>
            7.5913894176483154e-01 -9.5271721482276917e-02</leafValues></_>
        <_>
          <internalNodes>
            0 -1 345 4.2089028283953667e-04</internalNodes>
          <leafValues>
            -1.2183567881584167e-01 4.6928006410598755e-01</leafValues></_>
        <_>
          <internalNodes>
            0 -1 373 2.7706567198038101e-04</internalNodes>
          <leafValues>
            -9.3554317951202393e-02 6.3298732042312622e-01</leafValues></_>
        <_>
          <internalNodes>
            0 -1 287 -6.9473890107474290e-06</internalNodes>
          <leafValues>
            -2.7776411175727844e-01 2.3430201411247253e-01</leafValues></_>
        <_>
          <internalNodes>
            0 -1 270 -5.0766961649060249e-03</internalNodes>
          <leafValues>
            -7.1515953540802002e-01 9.5140047371387482e-02</leafValues></_>
        <_>
          <internalNodes>
            0 -1 613 -8.3694321801885962e-05</internalNodes>
          <leafValues>
            5.2728343009948730e-01 -1.3015630841255188e-01</leafValues></_>
        <_>
          <internalNodes>
            0 -1 349 2.5235512293875217e-04</internalNodes>
          <leafValues>
            -7.1216918528079987e-02 7.6433742046356201e-01</leafValues></_></weakClassifiers></_>
    <!-- stage 15 -->
    <_>
      <maxWeakCount>47</maxWeakCount>
      <stageThreshold>-1.1741389036178589e+00</stageThreshold>
      <weakClassifiers>
        <_>
          <internalNodes>
            0 -1 537 2.6809361297637224e-03</internalNodes>
          <leafValues>
            1.6251482069492340e-01 6.0148978233337402e-01</leafValues></_>
        <_>
          <internalNodes>
            0 -1 517 -1.8883340089814737e-05</internalNodes>
          <leafValues>
            -2.4896207451820374e-01 2.3828864097595215e-01</leafValues></_>
        <_>
          <internalNodes>
            0 -1 147 1.0281815193593502e-03</internalNodes>
          <leafValues>
            -6.8047977983951569e-02 7.6638686656951904e-01</leafValues></_>
        <_>
          <internalNodes>
            0 -1 15 -6.5624632406979799e-04</internalNodes>
          <leafValues>
            -4.7035381197929382e-01 8.8185422122478485e-02</leafValues></_>
        <_>
          <internalNodes>
            0 -1 179 -3.0011399649083614e-03</internalNodes>
          <leafValues>
            -7.7394610643386841e-01 5.9908609837293625e-02</leafValues></_>
        <_>
          <internalNodes>
            0 -1 323 3.4675296046771109e-04</internalNodes>
          <leafValues>
            -1.0365881770849228e-01 5.0536519289016724e-01</leafValues></_>
        <_>
          <internalNodes>
            0 -1 536 3.5131033509969711e-03</internalNodes>
          <leafValues>
            9.5743425190448761e-02 -5.1354885101318359e-01</leafValues></_>
        <_>
          <internalNodes>
            0 -1 332 4.0511676343157887e-04</internalNodes>
          <leafValues>
            -1.3368593156337738e-01 4.2858463525772095e-01</leafValues></_>
        <_>
          <internalNodes>
            0 -1 275 2.4992590770125389e-03</internalNodes>
          <leafValues>
            -1.4115580916404724e-01 3.5935956239700317e-01</leafValues></_>
        <_>
          <internalNodes>
            0 -1 483 3.3851284533739090e-03</internalNodes>
          <leafValues>
            -1.4465615153312683e-01 3.4353405237197876e-01</leafValues></_>
        <_>
          <internalNodes>
            0 -1 599 7.5077667133882642e-05</internalNodes>
          <leafValues>
            1.6958339512348175e-01 -3.0222687125205994e-01</leafValues></_>
        <_>
          <internalNodes>
            0 -1 588 6.3051347387954593e-04</internalNodes>
          <leafValues>
            -7.1805827319622040e-02 7.6687246561050415e-01</leafValues></_>
        <_>
          <internalNodes>
            0 -1 256 -3.1181033700704575e-03</internalNodes>
          <leafValues>
            -8.7284529209136963e-01 7.2285741567611694e-02</leafValues></_>
        <_>
          <internalNodes>
            0 -1 590 -8.6914637358859181e-04</internalNodes>
          <leafValues>
            8.2111269235610962e-01 -7.2787344455718994e-02</leafValues></_>
        <_>
          <internalNodes>
            0 -1 200 -3.5142512060701847e-03</internalNodes>
          <leafValues>
            3.2047227025032043e-01 -1.4148616790771484e-01</leafValues></_>
        <_>
          <internalNodes>
            0 -1 20 1.0806748643517494e-02</internalNodes>
          <leafValues>
            -1.1598409712314606e-01 4.2802050709724426e-01</leafValues></_>
        <_>
          <internalNodes>
            0 -1 52 2.5866888463497162e-03</internalNodes>
          <leafValues>
            1.2792260944843292e-01 -4.2251911759376526e-01</leafValues></_>
        <_>
          <internalNodes>
            0 -1 217 -6.5368069335818291e-03</internalNodes>
          <leafValues>
            4.6357235312461853e-01 -1.1648662388324738e-01</leafValues></_>
        <_>
          <internalNodes>
            0 -1 407 -7.1085762465372682e-04</internalNodes>
          <leafValues>
            5.8837616443634033e-01 -7.1769297122955322e-02</leafValues></_>
        <_>
          <internalNodes>
            0 -1 247 -1.0445262305438519e-03</internalNodes>
          <leafValues>
            5.3690701723098755e-01 -8.4063619375228882e-02</leafValues></_>
        <_>
          <internalNodes>
            0 -1 85 -6.7714252509176731e-04</internalNodes>
          <leafValues>
            -5.8350688219070435e-01 9.1624118387699127e-02</leafValues></_>
        <_>
          <internalNodes>
            0 -1 233 -1.4719326281920075e-03</internalNodes>
          <leafValues>
